<?xml version="1.0" encoding="UTF-8" standalone="yes"?>
<PMML xmlns="http://www.dmg.org/PMML-4_3" xmlns:data="http://jpmml.org/jpmml-model/InlineTable" version="4.3">
	<Header>
		<Application name="JPMML-XGBoost" version="1.3.1"/>
		<Timestamp>2018-07-10T14:06:05Z</Timestamp>
	</Header>
	<DataDictionary>
		<DataField name="_target" optype="categorical" dataType="string">
			<Value value="0"/>
			<Value value="1"/>
		</DataField>
		<DataField name="f0" optype="continuous" dataType="float"/>
		<DataField name="f1" optype="continuous" dataType="float"/>
		<DataField name="f2" optype="continuous" dataType="float"/>
		<DataField name="f3" optype="continuous" dataType="float"/>
		<DataField name="f4" optype="continuous" dataType="float"/>
		<DataField name="f5" optype="continuous" dataType="float"/>
		<DataField name="f6" optype="continuous" dataType="float"/>
		<DataField name="f7" optype="continuous" dataType="float"/>
		<DataField name="f8" optype="continuous" dataType="float"/>
		<DataField name="f9" optype="continuous" dataType="float"/>
	</DataDictionary>
	<MiningModel functionName="classification" x-mathContext="float">
		<MiningSchema>
			<MiningField name="_target" usageType="target"/>
			<MiningField name="f1"/>
			<MiningField name="f4"/>
			<MiningField name="f0"/>
			<MiningField name="f2"/>
			<MiningField name="f9"/>
			<MiningField name="f7"/>
			<MiningField name="f8"/>
			<MiningField name="f3"/>
			<MiningField name="f5"/>
			<MiningField name="f6"/>
		</MiningSchema>
		<Segmentation multipleModelMethod="modelChain">
			<Segment id="1">
				<True/>
				<MiningModel functionName="regression" x-mathContext="float">
					<MiningSchema>
						<MiningField name="f1"/>
						<MiningField name="f4"/>
						<MiningField name="f0"/>
						<MiningField name="f2"/>
						<MiningField name="f9"/>
						<MiningField name="f7"/>
						<MiningField name="f8"/>
						<MiningField name="f3"/>
						<MiningField name="f5"/>
						<MiningField name="f6"/>
					</MiningSchema>
					<Output>
						<OutputField name="xgbValue" optype="continuous" dataType="float" feature="predictedValue" isFinalResult="false"/>
					</Output>
					<Segmentation multipleModelMethod="sum">
						<Segment id="1">
							<True/>
							<TreeModel functionName="regression" missingValueStrategy="none" noTrueChildStrategy="returnLastPrediction" splitCharacteristic="multiSplit" x-mathContext="float">
								<MiningSchema>
									<MiningField name="f0"/>
									<MiningField name="f1"/>
									<MiningField name="f2"/>
									<MiningField name="f3"/>
									<MiningField name="f4"/>
									<MiningField name="f5"/>
									<MiningField name="f6"/>
									<MiningField name="f7"/>
									<MiningField name="f8"/>
									<MiningField name="f9"/>
								</MiningSchema>
								<Node score="-0.5539604">
									<True/>
									<Node score="-0.4571531">
										<SimplePredicate field="f8" operator="greaterOrEqual" value="0.5"/>
										<Node score="0.12934265">
											<SimplePredicate field="f5" operator="greaterOrEqual" value="1.2366725E-12"/>
											<Node score="0.38181257">
												<SimplePredicate field="f7" operator="greaterOrEqual" value="1.2369112E-12"/>
												<Node score="0.2837109">
													<SimplePredicate field="f2" operator="greaterOrEqual" value="3.5"/>
													<Node score="-0.3929471">
														<SimplePredicate field="f1" operator="greaterOrEqual" value="1.2218807E-10"/>
														<Node score="0.21348315">
															<SimplePredicate field="f5" operator="greaterOrEqual" value="2.343907E-6"/>
														</Node>
													</Node>
													<Node score="-0.10819672">
														<SimplePredicate field="f9" operator="greaterOrEqual" value="2.5"/>
													</Node>
												</Node>
												<Node score="0.33094174">
													<SimplePredicate field="f9" operator="greaterOrEqual" value="2.5"/>
													<Node score="-0.06689537">
														<SimplePredicate field="f1" operator="greaterOrEqual" value="4.4100337E-14"/>
													</Node>
												</Node>
												<Node score="0.53538775">
													<SimplePredicate field="f5" operator="greaterOrEqual" value="2.3382086E-6"/>
												</Node>
											</Node>
											<Node score="-0.48855725">
												<SimplePredicate field="f1" operator="greaterOrEqual" value="8.516332E-11"/>
												<Node score="0.17442922">
													<SimplePredicate field="f5" operator="greaterOrEqual" value="3.014066E-6"/>
													<Node score="-0.24963504">
														<SimplePredicate field="f1" operator="greaterOrEqual" value="9.700305E-9"/>
													</Node>
												</Node>
												<Node score="0.0119859">
													<SimplePredicate field="f4" operator="greaterOrEqual" value="2.5"/>
												</Node>
											</Node>
											<Node score="-0.13449985">
												<SimplePredicate field="f1" operator="greaterOrEqual" value="2.7569703E-14"/>
												<Node score="0.1772983">
													<SimplePredicate field="f5" operator="greaterOrEqual" value="8.732941E-10"/>
												</Node>
											</Node>
											<Node score="0.31577754">
												<SimplePredicate field="f5" operator="greaterOrEqual" value="1.6819266E-11"/>
											</Node>
										</Node>
										<Node score="0.14921443">
											<SimplePredicate field="f7" operator="greaterOrEqual" value="1.2440876E-12"/>
											<Node score="-0.3929141">
												<SimplePredicate field="f3" operator="greaterOrEqual" value="1.262757E-12"/>
												<Node score="0.24792045">
													<SimplePredicate field="f7" operator="greaterOrEqual" value="3.0242381E-6"/>
													<Node score="-0.042540625">
														<SimplePredicate field="f1" operator="greaterOrEqual" value="2.6858064E-15"/>
													</Node>
												</Node>
												<Node score="-0.23564908">
													<SimplePredicate field="f2" operator="greaterOrEqual" value="1.5"/>
												</Node>
											</Node>
											<Node score="-0.37830928">
												<SimplePredicate field="f6" operator="greaterOrEqual" value="3.5"/>
												<Node score="0.080689654">
													<SimplePredicate field="f5" operator="greaterOrEqual" value="6.8506564E-15"/>
												</Node>
											</Node>
											<Node score="-0.2302146">
												<SimplePredicate field="f9" operator="greaterOrEqual" value="2.5"/>
											</Node>
										</Node>
										<Node score="-0.42400792">
											<SimplePredicate field="f7" operator="greaterOrEqual" value="1.1174824E-14"/>
											<Node score="-0.21589231">
												<SimplePredicate field="f6" operator="greaterOrEqual" value="2.5"/>
												<Node score="-0.3591398">
													<SimplePredicate field="f6" operator="greaterOrEqual" value="3.5"/>
												</Node>
											</Node>
											<Node score="-0.53775746">
												<SimplePredicate field="f3" operator="greaterOrEqual" value="5.1321086E-11"/>
											</Node>
										</Node>
										<Node score="-0.25880682">
											<SimplePredicate field="f2" operator="greaterOrEqual" value="3.5"/>
											<Node score="-0.027777778">
												<SimplePredicate field="f0" operator="greaterOrEqual" value="4.5"/>
											</Node>
										</Node>
										<Node score="-0.30533525">
											<SimplePredicate field="f3" operator="greaterOrEqual" value="1.230783E-12"/>
										</Node>
									</Node>
									<Node score="-0.28792572">
										<SimplePredicate field="f5" operator="greaterOrEqual" value="1.2440424E-12"/>
										<Node score="0.06554622">
											<SimplePredicate field="f7" operator="greaterOrEqual" value="1.2372886E-12"/>
											<Node score="0.01875">
												<SimplePredicate field="f3" operator="greaterOrEqual" value="2.058584E-12"/>
												<Node score="-0.49901298">
													<SimplePredicate field="f1" operator="greaterOrEqual" value="1.2903339E-14"/>
													<Node score="-0.20963857">
														<SimplePredicate field="f5" operator="greaterOrEqual" value="5.0286753E-6"/>
													</Node>
												</Node>
												<Node score="-0.26792455">
													<SimplePredicate field="f3" operator="greaterOrEqual" value="8.9595487E-10"/>
												</Node>
											</Node>
											<Node score="-0.30887577">
												<SimplePredicate field="f1" operator="greaterOrEqual" value="4.650313E-15"/>
												<Node score="-0.038135596">
													<SimplePredicate field="f5" operator="greaterOrEqual" value="1.6919302E-8"/>
												</Node>
											</Node>
											<Node score="0.3">
												<SimplePredicate field="f5" operator="greaterOrEqual" value="2.0724339E-11"/>
											</Node>
										</Node>
										<Node score="-0.15">
											<SimplePredicate field="f1" operator="greaterOrEqual" value="1.3215597E-12"/>
											<Node score="0.15">
												<SimplePredicate field="f5" operator="greaterOrEqual" value="6.185145E-5"/>
												<Node score="-0.3714286">
													<SimplePredicate field="f1" operator="greaterOrEqual" value="3.3296876E-9"/>
												</Node>
											</Node>
											<Node score="-0.58555686">
												<SimplePredicate field="f7" operator="greaterOrEqual" value="8.3516474E-22"/>
											</Node>
										</Node>
										<Node score="-0.47441864">
											<SimplePredicate field="f5" operator="greaterOrEqual" value="8.860738E-10"/>
											<Node score="-0.27531648">
												<SimplePredicate field="f4" operator="greaterOrEqual" value="2.5"/>
											</Node>
										</Node>
										<Node score="-0.5412081">
											<SimplePredicate field="f1" operator="greaterOrEqual" value="5.789472E-15"/>
										</Node>
									</Node>
									<Node score="-0.53882825">
										<SimplePredicate field="f7" operator="greaterOrEqual" value="2.1551584E-14"/>
										<Node score="-0.584103">
											<SimplePredicate field="f9" operator="greaterOrEqual" value="2.5"/>
											<Node score="-0.27391306">
												<SimplePredicate field="f7" operator="greaterOrEqual" value="2.255952E-6"/>
												<Node score="-0.56175303">
													<SimplePredicate field="f3" operator="greaterOrEqual" value="9.522226E-11"/>
												</Node>
											</Node>
										</Node>
										<Node score="-0.5656718">
											<SimplePredicate field="f3" operator="greaterOrEqual" value="1.6305512E-12"/>
											<Node score="-0.34545454">
												<SimplePredicate field="f7" operator="greaterOrEqual" value="4.5633962E-5"/>
											</Node>
										</Node>
										<Node score="-0.33314803">
											<SimplePredicate field="f7" operator="greaterOrEqual" value="8.554407E-11"/>
										</Node>
									</Node>
									<Node score="-0.2720497">
										<SimplePredicate field="f3" operator="greaterOrEqual" value="1.230231E-12"/>
										<Node score="-0.59511703">
											<SimplePredicate field="f3" operator="greaterOrEqual" value="1.2502423E-12"/>
										</Node>
										<Node score="-0.5355885">
											<SimplePredicate field="f9" operator="greaterOrEqual" value="1.5"/>
										</Node>
									</Node>
									<Node score="-0.58894014">
										<SimplePredicate field="f7" operator="greaterOrEqual" value="2.901668E-20"/>
										<Node score="-0.5985147">
											<SimplePredicate field="f9" operator="greaterOrEqual" value="2.5"/>
										</Node>
									</Node>
									<Node score="-0.28941178">
										<SimplePredicate field="f3" operator="greaterOrEqual" value="4.4979878E-17"/>
									</Node>
								</Node>
							</TreeModel>
						</Segment>
						<Segment id="2">
							<True/>
							<TreeModel functionName="regression" missingValueStrategy="none" noTrueChildStrategy="returnLastPrediction" splitCharacteristic="multiSplit" x-mathContext="float">
								<MiningSchema>
									<MiningField name="f0"/>
									<MiningField name="f1"/>
									<MiningField name="f2"/>
									<MiningField name="f3"/>
									<MiningField name="f4"/>
									<MiningField name="f5"/>
									<MiningField name="f6"/>
									<MiningField name="f7"/>
									<MiningField name="f8"/>
									<MiningField name="f9"/>
								</MiningSchema>
								<Node score="0.010250036">
									<True/>
									<Node score="-0.27229872">
										<SimplePredicate field="f8" operator="greaterOrEqual" value="0.5"/>
										<Node score="0.153133">
											<SimplePredicate field="f5" operator="greaterOrEqual" value="1.2366725E-12"/>
											<Node score="0.1667296">
												<SimplePredicate field="f7" operator="greaterOrEqual" value="3.2037964E-14"/>
												<Node score="-0.37779814">
													<SimplePredicate field="f1" operator="greaterOrEqual" value="4.887808E-8"/>
													<Node score="0.16818005">
														<SimplePredicate field="f7" operator="greaterOrEqual" value="1.7483599E-6"/>
														<Node score="0.4289792">
															<SimplePredicate field="f7" operator="greaterOrEqual" value="2.800225E-6"/>
														</Node>
													</Node>
													<Node score="0.2332996">
														<SimplePredicate field="f0" operator="greaterOrEqual" value="1.5"/>
													</Node>
												</Node>
												<Node score="0.17604534">
													<SimplePredicate field="f9" operator="greaterOrEqual" value="2.5"/>
													<Node score="-0.13249315">
														<SimplePredicate field="f1" operator="greaterOrEqual" value="3.8768122E-14"/>
													</Node>
												</Node>
												<Node score="0.2871027">
													<SimplePredicate field="f7" operator="greaterOrEqual" value="2.3999281E-12"/>
												</Node>
											</Node>
											<Node score="-0.37773913">
												<SimplePredicate field="f1" operator="greaterOrEqual" value="2.3682024E-12"/>
												<Node score="0.25692967">
													<SimplePredicate field="f5" operator="greaterOrEqual" value="4.483212E-6"/>
													<Node score="-0.11149476">
														<SimplePredicate field="f1" operator="greaterOrEqual" value="1.0220934E-9"/>
													</Node>
												</Node>
												<Node score="-0.13787581">
													<SimplePredicate field="f4" operator="greaterOrEqual" value="2.5"/>
												</Node>
											</Node>
											<Node score="0.29752302">
												<SimplePredicate field="f2" operator="greaterOrEqual" value="3.5"/>
												<Node score="-0.02539877">
													<SimplePredicate field="f9" operator="greaterOrEqual" value="2.5"/>
												</Node>
											</Node>
											<Node score="-0.056464415">
												<SimplePredicate field="f1" operator="greaterOrEqual" value="9.835526E-15"/>
											</Node>
										</Node>
										<Node score="0.17088012">
											<SimplePredicate field="f7" operator="greaterOrEqual" value="2.2473228E-12"/>
											<Node score="-0.31232426">
												<SimplePredicate field="f3" operator="greaterOrEqual" value="4.9485476E-12"/>
												<Node score="0.16995397">
													<SimplePredicate field="f7" operator="greaterOrEqual" value="1.7867283E-6"/>
													<Node score="-0.0633615">
														<SimplePredicate field="f3" operator="greaterOrEqual" value="1.3832579E-8"/>
													</Node>
												</Node>
												<Node score="-0.17292483">
													<SimplePredicate field="f2" operator="greaterOrEqual" value="1.5"/>
												</Node>
											</Node>
											<Node score="-0.2686287">
												<SimplePredicate field="f6" operator="greaterOrEqual" value="3.5"/>
												<Node score="0.04587019">
													<SimplePredicate field="f5" operator="greaterOrEqual" value="3.2123576E-15"/>
												</Node>
											</Node>
											<Node score="-0.016896958">
												<SimplePredicate field="f1" operator="greaterOrEqual" value="3.1176771E-15"/>
											</Node>
										</Node>
										<Node score="-0.4254994">
											<SimplePredicate field="f1" operator="greaterOrEqual" value="9.350788E-16"/>
											<Node score="-0.3156359">
												<SimplePredicate field="f5" operator="greaterOrEqual" value="1.0515305E-16"/>
												<Node score="-0.21083127">
													<SimplePredicate field="f7" operator="greaterOrEqual" value="3.2147685E-14"/>
												</Node>
											</Node>
											<Node score="-0.357182">
												<SimplePredicate field="f3" operator="greaterOrEqual" value="1.2319614E-12"/>
											</Node>
										</Node>
										<Node score="-0.3675766">
											<SimplePredicate field="f5" operator="greaterOrEqual" value="4.987679E-15"/>
											<Node score="0.25667766">
												<SimplePredicate field="f1" operator="greaterOrEqual" value="3.0465473E-18"/>
											</Node>
										</Node>
										<Node score="-0.1645956">
											<SimplePredicate field="f7" operator="greaterOrEqual" value="2.5512283E-14"/>
										</Node>
									</Node>
									<Node score="-0.2511909">
										<SimplePredicate field="f5" operator="greaterOrEqual" value="1.2440424E-12"/>
										<Node score="-0.07040167">
											<SimplePredicate field="f7" operator="greaterOrEqual" value="1.2372886E-12"/>
											<Node score="-0.30215997">
												<SimplePredicate field="f3" operator="greaterOrEqual" value="3.9463797E-12"/>
												<Node score="-0.43629006">
													<SimplePredicate field="f1" operator="greaterOrEqual" value="4.048551E-11"/>
													<Node score="-0.07464471">
														<SimplePredicate field="f5" operator="greaterOrEqual" value="1.0447234E-4"/>
													</Node>
												</Node>
												<Node score="-0.02659356">
													<SimplePredicate field="f7" operator="greaterOrEqual" value="5.0485338E-5"/>
												</Node>
											</Node>
											<Node score="-0.26990503">
												<SimplePredicate field="f1" operator="greaterOrEqual" value="6.9761606E-14"/>
												<Node score="0.11406794">
													<SimplePredicate field="f5" operator="greaterOrEqual" value="3.772754E-6"/>
												</Node>
											</Node>
											<Node score="0.31430322">
												<SimplePredicate field="f5" operator="greaterOrEqual" value="9.956018E-10"/>
											</Node>
										</Node>
										<Node score="-0.4519537">
											<SimplePredicate field="f1" operator="greaterOrEqual" value="1.3215597E-12"/>
											<Node score="0.19412303">
												<SimplePredicate field="f5" operator="greaterOrEqual" value="0.0024917019"/>
											</Node>
											<Node score="-0.2869384">
												<SimplePredicate field="f5" operator="greaterOrEqual" value="3.1183143E-5"/>
											</Node>
										</Node>
										<Node score="-0.39407995">
											<SimplePredicate field="f5" operator="greaterOrEqual" value="5.637139E-6"/>
											<Node score="0.13222347">
												<SimplePredicate field="f1" operator="greaterOrEqual" value="6.184655E-13"/>
											</Node>
										</Node>
										<Node score="-0.38969144">
											<SimplePredicate field="f1" operator="greaterOrEqual" value="8.724326E-15"/>
										</Node>
									</Node>
									<Node score="-0.21710697">
										<SimplePredicate field="f7" operator="greaterOrEqual" value="1.2483457E-12"/>
										<Node score="-0.4289565">
											<SimplePredicate field="f3" operator="greaterOrEqual" value="1.3012317E-12"/>
											<Node score="-0.093941435">
												<SimplePredicate field="f7" operator="greaterOrEqual" value="4.603817E-5"/>
												<Node score="-0.4175614">
													<SimplePredicate field="f3" operator="greaterOrEqual" value="2.6822377E-8"/>
												</Node>
											</Node>
											<Node score="-0.4546545">
												<SimplePredicate field="f9" operator="greaterOrEqual" value="2.5"/>
											</Node>
										</Node>
										<Node score="-0.35285473">
											<SimplePredicate field="f1" operator="greaterOrEqual" value="2.8919664E-17"/>
											<Node score="-0.09779694">
												<SimplePredicate field="f7" operator="greaterOrEqual" value="3.0493209E-6"/>
											</Node>
										</Node>
										<Node score="0.3062834">
											<SimplePredicate field="f5" operator="greaterOrEqual" value="2.3846459E-17"/>
										</Node>
									</Node>
									<Node score="-0.45802626">
										<SimplePredicate field="f3" operator="greaterOrEqual" value="1.2687247E-13"/>
										<Node score="-0.41370863">
											<SimplePredicate field="f6" operator="greaterOrEqual" value="2.5"/>
											<Node score="-0.4613596">
												<SimplePredicate field="f3" operator="greaterOrEqual" value="1.2502423E-12"/>
											</Node>
										</Node>
									</Node>
									<Node score="-0.462935">
										<SimplePredicate field="f9" operator="greaterOrEqual" value="2.5"/>
									</Node>
									<Node score="-0.45056787">
										<SimplePredicate field="f3" operator="greaterOrEqual" value="6.31011E-23"/>
									</Node>
								</Node>
							</TreeModel>
						</Segment>
						<Segment id="3">
							<True/>
							<TreeModel functionName="regression" missingValueStrategy="none" noTrueChildStrategy="returnLastPrediction" splitCharacteristic="multiSplit" x-mathContext="float">
								<MiningSchema>
									<MiningField name="f0"/>
									<MiningField name="f1"/>
									<MiningField name="f2"/>
									<MiningField name="f3"/>
									<MiningField name="f4"/>
									<MiningField name="f5"/>
									<MiningField name="f6"/>
									<MiningField name="f7"/>
									<MiningField name="f8"/>
									<MiningField name="f9"/>
								</MiningSchema>
								<Node score="-0.3514433">
									<True/>
									<Node score="-0.313535">
										<SimplePredicate field="f8" operator="greaterOrEqual" value="0.5"/>
										<Node score="0.015147069">
											<SimplePredicate field="f5" operator="greaterOrEqual" value="1.2366725E-12"/>
											<Node score="0.012903014">
												<SimplePredicate field="f7" operator="greaterOrEqual" value="7.907058E-15"/>
												<Node score="0.22890551">
													<SimplePredicate field="f4" operator="greaterOrEqual" value="2.5"/>
													<Node score="0.2371643">
														<SimplePredicate field="f5" operator="greaterOrEqual" value="1.972801E-10"/>
														<Node score="0.32616884">
															<SimplePredicate field="f5" operator="greaterOrEqual" value="4.0484425E-9"/>
														</Node>
													</Node>
													<Node score="-0.0072119967">
														<SimplePredicate field="f1" operator="greaterOrEqual" value="4.1297742E-14"/>
													</Node>
												</Node>
												<Node score="0.18465692">
													<SimplePredicate field="f5" operator="greaterOrEqual" value="4.799109E-7"/>
													<Node score="0.37302965">
														<SimplePredicate field="f7" operator="greaterOrEqual" value="1.5659634E-6"/>
													</Node>
												</Node>
												<Node score="-0.3238045">
													<SimplePredicate field="f1" operator="greaterOrEqual" value="3.27713E-11"/>
												</Node>
											</Node>
											<Node score="-0.35466287">
												<SimplePredicate field="f1" operator="greaterOrEqual" value="1.1862449E-12"/>
												<Node score="0.18448067">
													<SimplePredicate field="f5" operator="greaterOrEqual" value="5.4044756E-7"/>
													<Node score="-0.19118807">
														<SimplePredicate field="f1" operator="greaterOrEqual" value="1.0220934E-9"/>
													</Node>
												</Node>
												<Node score="-0.17138308">
													<SimplePredicate field="f0" operator="greaterOrEqual" value="1.5"/>
												</Node>
											</Node>
											<Node score="0.11068202">
												<SimplePredicate field="f5" operator="greaterOrEqual" value="3.2397834E-10"/>
												<Node score="0.2693651">
													<SimplePredicate field="f5" operator="greaterOrEqual" value="3.9099817E-9"/>
												</Node>
											</Node>
											<Node score="-0.16507752">
												<SimplePredicate field="f1" operator="greaterOrEqual" value="4.762753E-14"/>
											</Node>
										</Node>
										<Node score="-0.21750304">
											<SimplePredicate field="f7" operator="greaterOrEqual" value="1.2440876E-12"/>
											<Node score="-0.09487609">
												<SimplePredicate field="f6" operator="greaterOrEqual" value="3.5"/>
												<Node score="0.2555182">
													<SimplePredicate field="f5" operator="greaterOrEqual" value="4.3984632E-14"/>
													<Node score="-0.15842676">
														<SimplePredicate field="f1" operator="greaterOrEqual" value="4.905183E-14"/>
													</Node>
												</Node>
												<Node score="-0.24736524">
													<SimplePredicate field="f1" operator="greaterOrEqual" value="2.8788816E-16"/>
												</Node>
											</Node>
											<Node score="-0.010678621">
												<SimplePredicate field="f6" operator="greaterOrEqual" value="2.5"/>
												<Node score="0.22802214">
													<SimplePredicate field="f7" operator="greaterOrEqual" value="4.187526E-11"/>
												</Node>
											</Node>
											<Node score="0.07227795">
												<SimplePredicate field="f7" operator="greaterOrEqual" value="1.0123183E-6"/>
											</Node>
										</Node>
										<Node score="-0.08305239">
											<SimplePredicate field="f2" operator="greaterOrEqual" value="3.5"/>
											<Node score="-0.27342892">
												<SimplePredicate field="f9" operator="greaterOrEqual" value="2.5"/>
												<Node score="0.49181634">
													<SimplePredicate field="f9" operator="greaterOrEqual" value="7.5"/>
												</Node>
											</Node>
											<Node score="0.09185115">
												<SimplePredicate field="f5" operator="greaterOrEqual" value="2.7013228E-13"/>
											</Node>
										</Node>
										<Node score="-0.3341282">
											<SimplePredicate field="f6" operator="greaterOrEqual" value="3.5"/>
											<Node score="-0.14143732">
												<SimplePredicate field="f3" operator="greaterOrEqual" value="1.230783E-12"/>
											</Node>
										</Node>
										<Node score="-0.18889496">
											<SimplePredicate field="f3" operator="greaterOrEqual" value="9.288727E-17"/>
										</Node>
									</Node>
									<Node score="-0.06856991">
										<SimplePredicate field="f5" operator="greaterOrEqual" value="1.2440424E-12"/>
										<Node score="0.017409163">
											<SimplePredicate field="f7" operator="greaterOrEqual" value="3.6100395E-14"/>
											<Node score="-0.36572862">
												<SimplePredicate field="f1" operator="greaterOrEqual" value="1.3749815E-12"/>
												<Node score="0.21040563">
													<SimplePredicate field="f5" operator="greaterOrEqual" value="5.4861797E-5"/>
													<Node score="-0.3458764">
														<SimplePredicate field="f1" operator="greaterOrEqual" value="2.1216447E-7"/>
													</Node>
												</Node>
												<Node score="-0.23175468">
													<SimplePredicate field="f5" operator="greaterOrEqual" value="2.650696E-6"/>
												</Node>
											</Node>
											<Node score="0.1399564">
												<SimplePredicate field="f5" operator="greaterOrEqual" value="5.2099014E-9"/>
												<Node score="-0.22605081">
													<SimplePredicate field="f9" operator="greaterOrEqual" value="2.5"/>
												</Node>
											</Node>
											<Node score="-0.2575887">
												<SimplePredicate field="f1" operator="greaterOrEqual" value="1.26745335E-14"/>
											</Node>
										</Node>
										<Node score="-0.3919734">
											<SimplePredicate field="f1" operator="greaterOrEqual" value="1.2522113E-12"/>
											<Node score="0.24964368">
												<SimplePredicate field="f5" operator="greaterOrEqual" value="0.0019291919"/>
												<Node score="-0.05752571">
													<SimplePredicate field="f3" operator="greaterOrEqual" value="6.655708E-16"/>
												</Node>
											</Node>
											<Node score="-0.25892755">
												<SimplePredicate field="f5" operator="greaterOrEqual" value="2.2419363E-5"/>
											</Node>
										</Node>
										<Node score="-0.16271704">
											<SimplePredicate field="f6" operator="greaterOrEqual" value="3.5"/>
											<Node score="0.5325457">
												<SimplePredicate field="f5" operator="greaterOrEqual" value="4.6669854E-7"/>
											</Node>
										</Node>
										<Node score="-0.33759138">
											<SimplePredicate field="f7" operator="greaterOrEqual" value="2.0847583E-20"/>
										</Node>
									</Node>
									<Node score="-0.33414888">
										<SimplePredicate field="f7" operator="greaterOrEqual" value="2.1551584E-14"/>
										<Node score="-0.38687065">
											<SimplePredicate field="f9" operator="greaterOrEqual" value="2.5"/>
											<Node score="-0.1604087">
												<SimplePredicate field="f7" operator="greaterOrEqual" value="2.255952E-6"/>
												<Node score="-0.36600125">
													<SimplePredicate field="f3" operator="greaterOrEqual" value="9.522226E-11"/>
												</Node>
											</Node>
											<Node score="-0.07899479">
												<SimplePredicate field="f1" operator="greaterOrEqual" value="2.4206238E-7"/>
											</Node>
										</Node>
										<Node score="-0.37677518">
											<SimplePredicate field="f3" operator="greaterOrEqual" value="2.0423203E-11"/>
											<Node score="-0.29709312">
												<SimplePredicate field="f7" operator="greaterOrEqual" value="3.0170709E-6"/>
											</Node>
										</Node>
										<Node score="-0.10183404">
											<SimplePredicate field="f7" operator="greaterOrEqual" value="7.687846E-10"/>
										</Node>
									</Node>
									<Node score="-0.08832458">
										<SimplePredicate field="f3" operator="greaterOrEqual" value="1.230231E-12"/>
										<Node score="-0.39845014">
											<SimplePredicate field="f3" operator="greaterOrEqual" value="1.2502423E-12"/>
										</Node>
										<Node score="-0.33633518">
											<SimplePredicate field="f9" operator="greaterOrEqual" value="1.5"/>
										</Node>
									</Node>
									<Node score="-0.39858642">
										<SimplePredicate field="f7" operator="greaterOrEqual" value="2.901668E-20"/>
										<Node score="-0.36896777">
											<SimplePredicate field="f2" operator="greaterOrEqual" value="3.5"/>
										</Node>
									</Node>
									<Node score="-0.07462032">
										<SimplePredicate field="f3" operator="greaterOrEqual" value="8.0300245E-17"/>
									</Node>
								</Node>
							</TreeModel>
						</Segment>
						<Segment id="4">
							<True/>
							<TreeModel functionName="regression" missingValueStrategy="none" noTrueChildStrategy="returnLastPrediction" splitCharacteristic="multiSplit" x-mathContext="float">
								<MiningSchema>
									<MiningField name="f0"/>
									<MiningField name="f1"/>
									<MiningField name="f2"/>
									<MiningField name="f3"/>
									<MiningField name="f4"/>
									<MiningField name="f5"/>
									<MiningField name="f6"/>
									<MiningField name="f7"/>
									<MiningField name="f8"/>
									<MiningField name="f9"/>
								</MiningSchema>
								<Node score="-0.30749193">
									<True/>
									<Node score="0.017541006">
										<SimplePredicate field="f8" operator="greaterOrEqual" value="0.5"/>
										<Node score="0.14652498">
											<SimplePredicate field="f5" operator="greaterOrEqual" value="3.5848768E-13"/>
											<Node score="0.24409285">
												<SimplePredicate field="f7" operator="greaterOrEqual" value="1.2602083E-12"/>
												<Node score="-0.24929151">
													<SimplePredicate field="f2" operator="greaterOrEqual" value="3.5"/>
													<Node score="0.061424207">
														<SimplePredicate field="f0" operator="greaterOrEqual" value="2.5"/>
														<Node score="0.24390398">
															<SimplePredicate field="f5" operator="greaterOrEqual" value="3.9531605E-9"/>
														</Node>
													</Node>
													<Node score="0.2644201">
														<SimplePredicate field="f5" operator="greaterOrEqual" value="7.892744E-6"/>
													</Node>
												</Node>
												<Node score="0.037558544">
													<SimplePredicate field="f1" operator="greaterOrEqual" value="7.5980577E-14"/>
													<Node score="0.23635401">
														<SimplePredicate field="f5" operator="greaterOrEqual" value="4.6684936E-9"/>
													</Node>
												</Node>
												<Node score="0.07604702">
													<SimplePredicate field="f3" operator="greaterOrEqual" value="8.0883265E-9"/>
												</Node>
											</Node>
											<Node score="-0.3246925">
												<SimplePredicate field="f1" operator="greaterOrEqual" value="2.9201446E-13"/>
												<Node score="0.16099986">
													<SimplePredicate field="f5" operator="greaterOrEqual" value="1.7404301E-7"/>
													<Node score="-0.16666698">
														<SimplePredicate field="f1" operator="greaterOrEqual" value="2.1548674E-9"/>
													</Node>
												</Node>
												<Node score="-0.12668596">
													<SimplePredicate field="f0" operator="greaterOrEqual" value="1.5"/>
												</Node>
											</Node>
											<Node score="0.059150252">
												<SimplePredicate field="f5" operator="greaterOrEqual" value="7.366101E-11"/>
												<Node score="0.20873709">
													<SimplePredicate field="f7" operator="greaterOrEqual" value="8.6604626E-17"/>
												</Node>
											</Node>
											<Node score="-0.08117033">
												<SimplePredicate field="f1" operator="greaterOrEqual" value="9.0158255E-15"/>
											</Node>
										</Node>
										<Node score="-0.26099733">
											<SimplePredicate field="f1" operator="greaterOrEqual" value="9.361107E-16"/>
											<Node score="-0.21669097">
												<SimplePredicate field="f7" operator="greaterOrEqual" value="3.2147685E-14"/>
												<Node score="-0.18177891">
													<SimplePredicate field="f5" operator="greaterOrEqual" value="1.7389573E-16"/>
													<Node score="-0.069278434">
														<SimplePredicate field="f6" operator="greaterOrEqual" value="2.5"/>
													</Node>
												</Node>
												<Node score="-0.2967072">
													<SimplePredicate field="f3" operator="greaterOrEqual" value="1.2398893E-12"/>
												</Node>
											</Node>
											<Node score="-0.07271746">
												<SimplePredicate field="f3" operator="greaterOrEqual" value="1.1809785E-12"/>
												<Node score="-0.36921945">
													<SimplePredicate field="f3" operator="greaterOrEqual" value="1.2539583E-12"/>
												</Node>
											</Node>
											<Node score="-0.13157754">
												<SimplePredicate field="f2" operator="greaterOrEqual" value="3.5"/>
											</Node>
										</Node>
										<Node score="0.38365707">
											<SimplePredicate field="f5" operator="greaterOrEqual" value="3.2739414E-15"/>
											<Node score="-0.13259366">
												<SimplePredicate field="f4" operator="greaterOrEqual" value="3.5"/>
												<Node score="0.24280784">
													<SimplePredicate field="f0" operator="greaterOrEqual" value="3.5"/>
												</Node>
											</Node>
											<Node score="-0.111859486">
												<SimplePredicate field="f9" operator="greaterOrEqual" value="2.5"/>
											</Node>
										</Node>
										<Node score="5.5074756E-4">
											<SimplePredicate field="f7" operator="greaterOrEqual" value="4.0178554E-14"/>
											<Node score="-0.14150584">
												<SimplePredicate field="f4" operator="greaterOrEqual" value="3.5"/>
											</Node>
										</Node>
										<Node score="-0.17255956">
											<SimplePredicate field="f7" operator="greaterOrEqual" value="4.565063E-19"/>
										</Node>
									</Node>
									<Node score="-0.060719233">
										<SimplePredicate field="f5" operator="greaterOrEqual" value="1.325912E-12"/>
										<Node score="-0.053353824">
											<SimplePredicate field="f7" operator="greaterOrEqual" value="4.9537605E-12"/>
											<Node score="-0.19032869">
												<SimplePredicate field="f3" operator="greaterOrEqual" value="2.0786582E-12"/>
												<Node score="-0.33651918">
													<SimplePredicate field="f1" operator="greaterOrEqual" value="3.1148933E-10"/>
													<Node score="-0.012003892">
														<SimplePredicate field="f5" operator="greaterOrEqual" value="1.0447234E-4"/>
													</Node>
												</Node>
												<Node score="0.20464936">
													<SimplePredicate field="f5" operator="greaterOrEqual" value="3.6036795E-6"/>
												</Node>
											</Node>
											<Node score="-0.24022907">
												<SimplePredicate field="f9" operator="greaterOrEqual" value="2.5"/>
												<Node score="0.12282696">
													<SimplePredicate field="f5" operator="greaterOrEqual" value="4.1583703E-6"/>
												</Node>
											</Node>
											<Node score="0.19770387">
												<SimplePredicate field="f7" operator="greaterOrEqual" value="5.0500275E-9"/>
											</Node>
										</Node>
										<Node score="-0.3535509">
											<SimplePredicate field="f1" operator="greaterOrEqual" value="1.3215597E-12"/>
											<Node score="0.0058755055">
												<SimplePredicate field="f5" operator="greaterOrEqual" value="5.4267824E-5"/>
												<Node score="-0.2964972">
													<SimplePredicate field="f9" operator="greaterOrEqual" value="1.5"/>
												</Node>
											</Node>
											<Node score="-0.29055148">
												<SimplePredicate field="f5" operator="greaterOrEqual" value="2.8981585E-6"/>
											</Node>
										</Node>
										<Node score="-0.24018435">
											<SimplePredicate field="f5" operator="greaterOrEqual" value="7.112355E-10"/>
											<Node score="-0.038542107">
												<SimplePredicate field="f4" operator="greaterOrEqual" value="2.5"/>
											</Node>
										</Node>
										<Node score="-0.30245775">
											<SimplePredicate field="f1" operator="greaterOrEqual" value="5.332148E-15"/>
										</Node>
									</Node>
									<Node score="-0.29791567">
										<SimplePredicate field="f7" operator="greaterOrEqual" value="2.1551584E-14"/>
										<Node score="-0.35767892">
											<SimplePredicate field="f9" operator="greaterOrEqual" value="2.5"/>
											<Node score="-0.119760014">
												<SimplePredicate field="f7" operator="greaterOrEqual" value="2.255952E-6"/>
												<Node score="-0.32366014">
													<SimplePredicate field="f3" operator="greaterOrEqual" value="9.522226E-11"/>
												</Node>
											</Node>
											<Node score="-0.33730206">
												<SimplePredicate field="f2" operator="greaterOrEqual" value="2.5"/>
											</Node>
										</Node>
										<Node score="-0.32590693">
											<SimplePredicate field="f3" operator="greaterOrEqual" value="4.684835E-12"/>
											<Node score="-0.10785925">
												<SimplePredicate field="f7" operator="greaterOrEqual" value="5.8198624E-5"/>
											</Node>
										</Node>
										<Node score="-0.13066104">
											<SimplePredicate field="f7" operator="greaterOrEqual" value="1.9383389E-11"/>
										</Node>
									</Node>
									<Node score="-0.064867266">
										<SimplePredicate field="f3" operator="greaterOrEqual" value="1.230231E-12"/>
										<Node score="-0.36284047">
											<SimplePredicate field="f3" operator="greaterOrEqual" value="1.2502423E-12"/>
										</Node>
										<Node score="-0.28847623">
											<SimplePredicate field="f9" operator="greaterOrEqual" value="1.5"/>
										</Node>
									</Node>
									<Node score="-0.3536671">
										<SimplePredicate field="f7" operator="greaterOrEqual" value="2.901668E-20"/>
										<Node score="-0.36744624">
											<SimplePredicate field="f9" operator="greaterOrEqual" value="2.5"/>
										</Node>
									</Node>
									<Node score="-0.06898666">
										<SimplePredicate field="f3" operator="greaterOrEqual" value="4.4979878E-17"/>
									</Node>
								</Node>
							</TreeModel>
						</Segment>
						<Segment id="5">
							<True/>
							<TreeModel functionName="regression" missingValueStrategy="none" noTrueChildStrategy="returnLastPrediction" splitCharacteristic="multiSplit" x-mathContext="float">
								<MiningSchema>
									<MiningField name="f0"/>
									<MiningField name="f1"/>
									<MiningField name="f2"/>
									<MiningField name="f3"/>
									<MiningField name="f4"/>
									<MiningField name="f5"/>
									<MiningField name="f6"/>
									<MiningField name="f7"/>
									<MiningField name="f8"/>
									<MiningField name="f9"/>
								</MiningSchema>
								<Node score="-0.22940676">
									<True/>
									<Node score="0.03301458">
										<SimplePredicate field="f8" operator="greaterOrEqual" value="0.5"/>
										<Node score="-0.04470566">
											<SimplePredicate field="f7" operator="greaterOrEqual" value="4.0857705E-14"/>
											<Node score="0.22044514">
												<SimplePredicate field="f5" operator="greaterOrEqual" value="2.6319788E-13"/>
												<Node score="-0.32195252">
													<SimplePredicate field="f1" operator="greaterOrEqual" value="2.9267254E-13"/>
													<Node score="0.11488789">
														<SimplePredicate field="f5" operator="greaterOrEqual" value="1.5504816E-7"/>
														<Node score="0.30408865">
															<SimplePredicate field="f7" operator="greaterOrEqual" value="2.3574544E-6"/>
														</Node>
													</Node>
													<Node score="0.0046075936">
														<SimplePredicate field="f0" operator="greaterOrEqual" value="1.5"/>
													</Node>
												</Node>
												<Node score="0.15827972">
													<SimplePredicate field="f5" operator="greaterOrEqual" value="7.3413456E-11"/>
													<Node score="0.23590942">
														<SimplePredicate field="f7" operator="greaterOrEqual" value="2.8732681E-11"/>
													</Node>
												</Node>
												<Node score="0.03929424">
													<SimplePredicate field="f1" operator="greaterOrEqual" value="5.293165E-15"/>
												</Node>
											</Node>
											<Node score="-0.1866472">
												<SimplePredicate field="f1" operator="greaterOrEqual" value="2.861365E-15"/>
												<Node score="-0.074107684">
													<SimplePredicate field="f5" operator="greaterOrEqual" value="2.9297743E-15"/>
													<Node score="-0.24752572">
														<SimplePredicate field="f9" operator="greaterOrEqual" value="2.5"/>
													</Node>
												</Node>
												<Node score="-0.32017696">
													<SimplePredicate field="f1" operator="greaterOrEqual" value="1.416388E-11"/>
												</Node>
											</Node>
											<Node score="0.27699283">
												<SimplePredicate field="f5" operator="greaterOrEqual" value="3.7947584E-15"/>
												<Node score="0.064573035">
													<SimplePredicate field="f4" operator="greaterOrEqual" value="3.5"/>
												</Node>
											</Node>
											<Node score="0.21323262">
												<SimplePredicate field="f7" operator="greaterOrEqual" value="1.5753274E-5"/>
											</Node>
										</Node>
										<Node score="-0.2374707">
											<SimplePredicate field="f3" operator="greaterOrEqual" value="1.230783E-12"/>
											<Node score="-0.21707353">
												<SimplePredicate field="f3" operator="greaterOrEqual" value="1.2539583E-12"/>
												<Node score="-0.3677944">
													<SimplePredicate field="f2" operator="greaterOrEqual" value="2.5"/>
													<Node score="-0.2772752">
														<SimplePredicate field="f9" operator="greaterOrEqual" value="1.5"/>
													</Node>
												</Node>
												<Node score="0.34438205">
													<SimplePredicate field="f7" operator="greaterOrEqual" value="1.2393091E-14"/>
												</Node>
											</Node>
											<Node score="-0.12479499">
												<SimplePredicate field="f9" operator="greaterOrEqual" value="1.5"/>
												<Node score="0.37487662">
													<SimplePredicate field="f9" operator="greaterOrEqual" value="5.5"/>
												</Node>
											</Node>
											<Node score="0.35983542">
												<SimplePredicate field="f2" operator="greaterOrEqual" value="2.5"/>
											</Node>
										</Node>
										<Node score="-0.3249489">
											<SimplePredicate field="f3" operator="greaterOrEqual" value="4.2686534E-14"/>
											<Node score="-0.44001785">
												<SimplePredicate field="f5" operator="greaterOrEqual" value="1.1268176E-12"/>
												<Node score="-0.27494368">
													<SimplePredicate field="f1" operator="greaterOrEqual" value="2.4729812E-11"/>
												</Node>
											</Node>
											<Node score="-0.039875586">
												<SimplePredicate field="f5" operator="greaterOrEqual" value="9.111571E-13"/>
											</Node>
										</Node>
										<Node score="-0.10486878">
											<SimplePredicate field="f7" operator="greaterOrEqual" value="8.1608644E-16"/>
											<Node score="0.016435228">
												<SimplePredicate field="f5" operator="greaterOrEqual" value="7.684912E-14"/>
											</Node>
										</Node>
										<Node score="-0.17945309">
											<SimplePredicate field="f7" operator="greaterOrEqual" value="9.462972E-20"/>
										</Node>
									</Node>
									<Node score="-0.28091115">
										<SimplePredicate field="f5" operator="greaterOrEqual" value="1.2440424E-12"/>
										<Node score="0.13935006">
											<SimplePredicate field="f7" operator="greaterOrEqual" value="3.1855662E-14"/>
											<Node score="-0.2895383">
												<SimplePredicate field="f1" operator="greaterOrEqual" value="1.3749815E-12"/>
												<Node score="0.13531403">
													<SimplePredicate field="f5" operator="greaterOrEqual" value="5.555037E-6"/>
													<Node score="-0.25122344">
														<SimplePredicate field="f1" operator="greaterOrEqual" value="3.052739E-8"/>
													</Node>
												</Node>
												<Node score="-0.062539026">
													<SimplePredicate field="f7" operator="greaterOrEqual" value="1.4485395E-6"/>
												</Node>
											</Node>
											<Node score="0.17141399">
												<SimplePredicate field="f5" operator="greaterOrEqual" value="4.673993E-10"/>
												<Node score="-0.052596208">
													<SimplePredicate field="f1" operator="greaterOrEqual" value="1.5292588E-13"/>
												</Node>
											</Node>
											<Node score="-0.18979837">
												<SimplePredicate field="f1" operator="greaterOrEqual" value="4.650313E-15"/>
											</Node>
										</Node>
										<Node score="-0.33585984">
											<SimplePredicate field="f1" operator="greaterOrEqual" value="1.2522113E-12"/>
											<Node score="0.03345078">
												<SimplePredicate field="f5" operator="greaterOrEqual" value="2.2419363E-5"/>
												<Node score="-0.29561064">
													<SimplePredicate field="f9" operator="greaterOrEqual" value="1.5"/>
												</Node>
											</Node>
											<Node score="-0.2943275">
												<SimplePredicate field="f0" operator="greaterOrEqual" value="2.5"/>
											</Node>
										</Node>
										<Node score="-0.070681855">
											<SimplePredicate field="f6" operator="greaterOrEqual" value="3.5"/>
											<Node score="0.44283637">
												<SimplePredicate field="f5" operator="greaterOrEqual" value="4.6669854E-7"/>
											</Node>
										</Node>
										<Node score="-0.18419439">
											<SimplePredicate field="f5" operator="greaterOrEqual" value="2.340618E-10"/>
										</Node>
									</Node>
									<Node score="-0.31133953">
										<SimplePredicate field="f7" operator="greaterOrEqual" value="1.5193789E-14"/>
										<Node score="-0.3081113">
											<SimplePredicate field="f9" operator="greaterOrEqual" value="2.5"/>
											<Node score="-0.089242004">
												<SimplePredicate field="f7" operator="greaterOrEqual" value="2.255952E-6"/>
												<Node score="-0.29118577">
													<SimplePredicate field="f3" operator="greaterOrEqual" value="9.522226E-11"/>
												</Node>
											</Node>
											<Node score="-0.3330647">
												<SimplePredicate field="f3" operator="greaterOrEqual" value="5.9580414E-12"/>
											</Node>
										</Node>
										<Node score="-0.19107026">
											<SimplePredicate field="f2" operator="greaterOrEqual" value="2.5"/>
											<Node score="-0.2812794">
												<SimplePredicate field="f3" operator="greaterOrEqual" value="1.4159836E-12"/>
											</Node>
										</Node>
										<Node score="-0.13249196">
											<SimplePredicate field="f7" operator="greaterOrEqual" value="3.0170709E-6"/>
										</Node>
									</Node>
									<Node score="0.08526821">
										<SimplePredicate field="f3" operator="greaterOrEqual" value="1.230231E-12"/>
										<Node score="-0.19184633">
											<SimplePredicate field="f3" operator="greaterOrEqual" value="1.2502423E-12"/>
											<Node score="-0.34184134">
												<SimplePredicate field="f7" operator="greaterOrEqual" value="1.1905881E-18"/>
											</Node>
										</Node>
										<Node score="-0.24684456">
											<SimplePredicate field="f7" operator="greaterOrEqual" value="1.4117625E-19"/>
										</Node>
									</Node>
									<Node score="-0.32713428">
										<SimplePredicate field="f7" operator="greaterOrEqual" value="1.8953325E-21"/>
										<Node score="-0.34533754">
											<SimplePredicate field="f9" operator="greaterOrEqual" value="2.5"/>
										</Node>
									</Node>
									<Node score="0.58566844">
										<SimplePredicate field="f3" operator="greaterOrEqual" value="1.04041305E-17"/>
									</Node>
								</Node>
							</TreeModel>
						</Segment>
						<Segment id="6">
							<True/>
							<TreeModel functionName="regression" missingValueStrategy="none" noTrueChildStrategy="returnLastPrediction" splitCharacteristic="multiSplit" x-mathContext="float">
								<MiningSchema>
									<MiningField name="f0"/>
									<MiningField name="f1"/>
									<MiningField name="f2"/>
									<MiningField name="f3"/>
									<MiningField name="f4"/>
									<MiningField name="f5"/>
									<MiningField name="f6"/>
									<MiningField name="f7"/>
									<MiningField name="f8"/>
									<MiningField name="f9"/>
								</MiningSchema>
								<Node score="-0.30395305">
									<True/>
									<Node score="-0.13269912">
										<SimplePredicate field="f8" operator="greaterOrEqual" value="0.5"/>
										<Node score="-0.16771972">
											<SimplePredicate field="f5" operator="greaterOrEqual" value="5.525371E-12"/>
											<Node score="-0.02492401">
												<SimplePredicate field="f4" operator="greaterOrEqual" value="2.5"/>
												<Node score="0.14370465">
													<SimplePredicate field="f5" operator="greaterOrEqual" value="1.3016772E-9"/>
													<Node score="-0.015768124">
														<SimplePredicate field="f1" operator="greaterOrEqual" value="4.646759E-10"/>
														<Node score="0.43833202">
															<SimplePredicate field="f7" operator="greaterOrEqual" value="1.714895E-17"/>
														</Node>
													</Node>
													<Node score="0.2301396">
														<SimplePredicate field="f5" operator="greaterOrEqual" value="1.7026078E-8"/>
													</Node>
												</Node>
												<Node score="-0.014344354">
													<SimplePredicate field="f1" operator="greaterOrEqual" value="6.177223E-14"/>
													<Node score="-0.24499634">
														<SimplePredicate field="f9" operator="greaterOrEqual" value="2.5"/>
													</Node>
												</Node>
												<Node score="0.1494416">
													<SimplePredicate field="f3" operator="greaterOrEqual" value="5.746553E-17"/>
												</Node>
											</Node>
											<Node score="0.1529476">
												<SimplePredicate field="f5" operator="greaterOrEqual" value="1.7125296E-6"/>
												<Node score="0.27093557">
													<SimplePredicate field="f7" operator="greaterOrEqual" value="4.6264254E-10"/>
													<Node score="-0.008165636">
														<SimplePredicate field="f9" operator="greaterOrEqual" value="1.5"/>
													</Node>
												</Node>
												<Node score="-0.11301439">
													<SimplePredicate field="f1" operator="greaterOrEqual" value="1.049238E-8"/>
												</Node>
											</Node>
											<Node score="-0.27479354">
												<SimplePredicate field="f1" operator="greaterOrEqual" value="8.347406E-11"/>
												<Node score="-0.13846116">
													<SimplePredicate field="f5" operator="greaterOrEqual" value="1.0193172E-7"/>
												</Node>
											</Node>
											<Node score="0.111978434">
												<SimplePredicate field="f5" operator="greaterOrEqual" value="7.898501E-9"/>
											</Node>
										</Node>
										<Node score="-0.017011296">
											<SimplePredicate field="f7" operator="greaterOrEqual" value="7.178547E-15"/>
											<Node score="-0.1428978">
												<SimplePredicate field="f9" operator="greaterOrEqual" value="2.5"/>
												<Node score="0.43326405">
													<SimplePredicate field="f9" operator="greaterOrEqual" value="7.5"/>
													<Node score="0.090892546">
														<SimplePredicate field="f7" operator="greaterOrEqual" value="9.661368E-7"/>
													</Node>
												</Node>
												<Node score="-0.23375626">
													<SimplePredicate field="f1" operator="greaterOrEqual" value="3.705474E-16"/>
												</Node>
											</Node>
											<Node score="-0.16600727">
												<SimplePredicate field="f1" operator="greaterOrEqual" value="3.0542526E-15"/>
												<Node score="-0.040100757">
													<SimplePredicate field="f5" operator="greaterOrEqual" value="3.0883037E-15"/>
												</Node>
											</Node>
											<Node score="0.18153939">
												<SimplePredicate field="f5" operator="greaterOrEqual" value="3.7947584E-15"/>
											</Node>
										</Node>
										<Node score="-0.20198767">
											<SimplePredicate field="f1" operator="greaterOrEqual" value="1.2688843E-14"/>
											<Node score="-0.079828784">
												<SimplePredicate field="f3" operator="greaterOrEqual" value="1.0890806E-12"/>
												<Node score="-0.28017592">
													<SimplePredicate field="f3" operator="greaterOrEqual" value="1.2539583E-12"/>
												</Node>
											</Node>
											<Node score="-0.09119882">
												<SimplePredicate field="f2" operator="greaterOrEqual" value="3.5"/>
											</Node>
										</Node>
										<Node score="0.19296469">
											<SimplePredicate field="f5" operator="greaterOrEqual" value="1.2639485E-14"/>
											<Node score="-0.10388955">
												<SimplePredicate field="f4" operator="greaterOrEqual" value="3.5"/>
											</Node>
										</Node>
										<Node score="0.045914814">
											<SimplePredicate field="f2" operator="greaterOrEqual" value="3.5"/>
										</Node>
									</Node>
									<Node score="0.14029235">
										<SimplePredicate field="f7" operator="greaterOrEqual" value="1.2372886E-12"/>
										<Node score="-0.25154048">
											<SimplePredicate field="f3" operator="greaterOrEqual" value="1.3013029E-12"/>
											<Node score="0.23308806">
												<SimplePredicate field="f5" operator="greaterOrEqual" value="1.5295987E-12"/>
												<Node score="-0.2875071">
													<SimplePredicate field="f9" operator="greaterOrEqual" value="2.5"/>
													<Node score="0.3088507">
														<SimplePredicate field="f5" operator="greaterOrEqual" value="1.20150165E-4"/>
													</Node>
												</Node>
												<Node score="-0.11681897">
													<SimplePredicate field="f1" operator="greaterOrEqual" value="2.0540579E-15"/>
												</Node>
											</Node>
											<Node score="0.18733804">
												<SimplePredicate field="f7" operator="greaterOrEqual" value="2.213162E-6"/>
												<Node score="-0.23115346">
													<SimplePredicate field="f3" operator="greaterOrEqual" value="5.4536387E-10"/>
												</Node>
											</Node>
											<Node score="-0.300999">
												<SimplePredicate field="f3" operator="greaterOrEqual" value="8.944798E-10"/>
											</Node>
										</Node>
										<Node score="-0.1730982">
											<SimplePredicate field="f7" operator="greaterOrEqual" value="5.7900135E-10"/>
											<Node score="0.13740583">
												<SimplePredicate field="f2" operator="greaterOrEqual" value="2.5"/>
												<Node score="0.48041594">
													<SimplePredicate field="f3" operator="greaterOrEqual" value="1.0815206E-12"/>
												</Node>
											</Node>
											<Node score="0.098779336">
												<SimplePredicate field="f7" operator="greaterOrEqual" value="1.6390638E-6"/>
											</Node>
										</Node>
										<Node score="-0.16979775">
											<SimplePredicate field="f3" operator="greaterOrEqual" value="1.8677055E-16"/>
											<Node score="-0.027515382">
												<SimplePredicate field="f3" operator="greaterOrEqual" value="1.0666352E-12"/>
											</Node>
										</Node>
										<Node score="-0.36065775">
											<SimplePredicate field="f1" operator="greaterOrEqual" value="2.8330824E-10"/>
										</Node>
									</Node>
									<Node score="-0.09616161">
										<SimplePredicate field="f5" operator="greaterOrEqual" value="1.3009704E-12"/>
										<Node score="-0.3168866">
											<SimplePredicate field="f1" operator="greaterOrEqual" value="1.3215597E-12"/>
											<Node score="0.1447851">
												<SimplePredicate field="f5" operator="greaterOrEqual" value="5.048728E-6"/>
												<Node score="-0.23440938">
													<SimplePredicate field="f1" operator="greaterOrEqual" value="3.41007E-9"/>
												</Node>
											</Node>
											<Node score="-0.26270524">
												<SimplePredicate field="f0" operator="greaterOrEqual" value="2.5"/>
											</Node>
										</Node>
										<Node score="-0.14532577">
											<SimplePredicate field="f5" operator="greaterOrEqual" value="5.0048587E-9"/>
											<Node score="0.16070615">
												<SimplePredicate field="f4" operator="greaterOrEqual" value="2.5"/>
											</Node>
										</Node>
										<Node score="-0.25195134">
											<SimplePredicate field="f1" operator="greaterOrEqual" value="4.9049462E-14"/>
										</Node>
									</Node>
									<Node score="-0.31199965">
										<SimplePredicate field="f3" operator="greaterOrEqual" value="1.2687247E-13"/>
										<Node score="-0.22655375">
											<SimplePredicate field="f6" operator="greaterOrEqual" value="2.5"/>
											<Node score="-0.32473737">
												<SimplePredicate field="f3" operator="greaterOrEqual" value="1.2502423E-12"/>
											</Node>
										</Node>
										<Node score="-0.10532662">
											<SimplePredicate field="f0" operator="greaterOrEqual" value="6.5"/>
										</Node>
									</Node>
									<Node score="-0.3308437">
										<SimplePredicate field="f9" operator="greaterOrEqual" value="2.5"/>
										<Node score="-0.2986725">
											<SimplePredicate field="f2" operator="greaterOrEqual" value="3.5"/>
										</Node>
									</Node>
									<Node score="-0.23728848">
										<SimplePredicate field="f7" operator="greaterOrEqual" value="2.1533524E-14"/>
									</Node>
								</Node>
							</TreeModel>
						</Segment>
						<Segment id="7">
							<True/>
							<TreeModel functionName="regression" missingValueStrategy="none" noTrueChildStrategy="returnLastPrediction" splitCharacteristic="multiSplit" x-mathContext="float">
								<MiningSchema>
									<MiningField name="f1"/>
									<MiningField name="f2"/>
									<MiningField name="f3"/>
									<MiningField name="f4"/>
									<MiningField name="f5"/>
									<MiningField name="f6"/>
									<MiningField name="f7"/>
									<MiningField name="f8"/>
									<MiningField name="f9"/>
								</MiningSchema>
								<Node score="0.20822182">
									<True/>
									<Node score="0.002648585">
										<SimplePredicate field="f8" operator="greaterOrEqual" value="0.5"/>
										<Node score="-0.035093777">
											<SimplePredicate field="f7" operator="greaterOrEqual" value="8.175312E-12"/>
											<Node score="-0.25157067">
												<SimplePredicate field="f3" operator="greaterOrEqual" value="1.1282415E-11"/>
												<Node score="0.12569349">
													<SimplePredicate field="f7" operator="greaterOrEqual" value="5.453175E-6"/>
													<Node score="0.2193047">
														<SimplePredicate field="f7" operator="greaterOrEqual" value="3.0070314E-5"/>
														<Node score="0.0144883115">
															<SimplePredicate field="f7" operator="greaterOrEqual" value="2.2946438E-4"/>
														</Node>
													</Node>
													<Node score="-0.05819386">
														<SimplePredicate field="f3" operator="greaterOrEqual" value="7.920761E-9"/>
													</Node>
												</Node>
												<Node score="0.057636745">
													<SimplePredicate field="f6" operator="greaterOrEqual" value="1.5"/>
													<Node score="-0.068469726">
														<SimplePredicate field="f6" operator="greaterOrEqual" value="3.5"/>
													</Node>
												</Node>
												<Node score="-0.034590594">
													<SimplePredicate field="f7" operator="greaterOrEqual" value="4.3198258E-7"/>
												</Node>
											</Node>
											<Node score="-0.15562752">
												<SimplePredicate field="f6" operator="greaterOrEqual" value="1.5"/>
												<Node score="0.1397894">
													<SimplePredicate field="f7" operator="greaterOrEqual" value="8.541562E-10"/>
													<Node score="0.24879993">
														<SimplePredicate field="f3" operator="greaterOrEqual" value="1.6785606E-13"/>
													</Node>
												</Node>
												<Node score="0.081848584">
													<SimplePredicate field="f6" operator="greaterOrEqual" value="2.5"/>
												</Node>
											</Node>
											<Node score="-0.3125782">
												<SimplePredicate field="f9" operator="greaterOrEqual" value="1.5"/>
												<Node score="0.05745051">
													<SimplePredicate field="f7" operator="greaterOrEqual" value="2.3579887E-6"/>
												</Node>
											</Node>
											<Node score="0.32837397">
												<SimplePredicate field="f7" operator="greaterOrEqual" value="7.6403495E-8"/>
											</Node>
										</Node>
										<Node score="-0.28077534">
											<SimplePredicate field="f3" operator="greaterOrEqual" value="6.5514824E-12"/>
											<Node score="-0.2839361">
												<SimplePredicate field="f7" operator="greaterOrEqual" value="1.1117869E-16"/>
												<Node score="-0.060424414">
													<SimplePredicate field="f7" operator="greaterOrEqual" value="6.5810447E-12"/>
													<Node score="-0.29885235">
														<SimplePredicate field="f3" operator="greaterOrEqual" value="8.008516E-12"/>
													</Node>
												</Node>
												<Node score="-0.41333345">
													<SimplePredicate field="f5" operator="greaterOrEqual" value="1.2602894E-12"/>
												</Node>
											</Node>
											<Node score="-0.18167008">
												<SimplePredicate field="f3" operator="greaterOrEqual" value="1.8078691E-10"/>
												<Node score="0.07691878">
													<SimplePredicate field="f4" operator="greaterOrEqual" value="3.5"/>
												</Node>
											</Node>
											<Node score="0.13635543">
												<SimplePredicate field="f9" operator="greaterOrEqual" value="2.5"/>
											</Node>
										</Node>
										<Node score="-0.2073295">
											<SimplePredicate field="f9" operator="greaterOrEqual" value="2.5"/>
											<Node score="0.65849125">
												<SimplePredicate field="f9" operator="greaterOrEqual" value="7.5"/>
												<Node score="0.2602645">
													<SimplePredicate field="f7" operator="greaterOrEqual" value="4.5373497E-17"/>
												</Node>
											</Node>
											<Node score="0.4038631">
												<SimplePredicate field="f2" operator="greaterOrEqual" value="6.5"/>
											</Node>
										</Node>
										<Node score="0.07103325">
											<SimplePredicate field="f5" operator="greaterOrEqual" value="9.229668E-14"/>
											<Node score="-0.04287541">
												<SimplePredicate field="f1" operator="greaterOrEqual" value="1.233077E-13"/>
											</Node>
										</Node>
										<Node score="-0.10488536">
											<SimplePredicate field="f1" operator="greaterOrEqual" value="1.2113368E-16"/>
										</Node>
									</Node>
									<Node score="-0.16453528">
										<SimplePredicate field="f7" operator="greaterOrEqual" value="1.5193789E-14"/>
										<Node score="0.03885544">
											<SimplePredicate field="f5" operator="greaterOrEqual" value="1.3943317E-12"/>
											<Node score="-0.2533087">
												<SimplePredicate field="f1" operator="greaterOrEqual" value="4.01005E-12"/>
												<Node score="0.10713417">
													<SimplePredicate field="f5" operator="greaterOrEqual" value="2.650696E-6"/>
													<Node score="-0.21206294">
														<SimplePredicate field="f1" operator="greaterOrEqual" value="3.052739E-8"/>
													</Node>
												</Node>
												<Node score="-0.0539811">
													<SimplePredicate field="f7" operator="greaterOrEqual" value="3.783743E-7"/>
												</Node>
											</Node>
											<Node score="0.33935535">
												<SimplePredicate field="f5" operator="greaterOrEqual" value="3.7736352E-6"/>
												<Node score="-0.08930736">
													<SimplePredicate field="f7" operator="greaterOrEqual" value="8.345599E-8"/>
												</Node>
											</Node>
											<Node score="-0.09619639">
												<SimplePredicate field="f1" operator="greaterOrEqual" value="3.9372866E-14"/>
											</Node>
										</Node>
										<Node score="-0.27920902">
											<SimplePredicate field="f9" operator="greaterOrEqual" value="2.5"/>
											<Node score="-0.2982241">
												<SimplePredicate field="f3" operator="greaterOrEqual" value="5.9580414E-12"/>
												<Node score="-0.19300848">
													<SimplePredicate field="f2" operator="greaterOrEqual" value="4.5"/>
												</Node>
											</Node>
											<Node score="-0.119790435">
												<SimplePredicate field="f7" operator="greaterOrEqual" value="4.4785976E-12"/>
											</Node>
										</Node>
										<Node score="-0.22815685">
											<SimplePredicate field="f1" operator="greaterOrEqual" value="9.567107E-16"/>
											<Node score="-0.13354072">
												<SimplePredicate field="f5" operator="greaterOrEqual" value="4.280526E-13"/>
											</Node>
										</Node>
										<Node score="0.34694332">
											<SimplePredicate field="f5" operator="greaterOrEqual" value="9.159456E-16"/>
										</Node>
									</Node>
									<Node score="0.46984127">
										<SimplePredicate field="f3" operator="greaterOrEqual" value="1.230231E-12"/>
										<Node score="-0.2404099">
											<SimplePredicate field="f3" operator="greaterOrEqual" value="1.2502423E-12"/>
											<Node score="-0.3124215">
												<SimplePredicate field="f1" operator="greaterOrEqual" value="9.234167E-19"/>
											</Node>
											<Node score="0.13639963">
												<SimplePredicate field="f1" operator="greaterOrEqual" value="1.5736704E-19"/>
											</Node>
										</Node>
										<Node score="0.14538573">
											<SimplePredicate field="f9" operator="greaterOrEqual" value="1.5"/>
											<Node score="-0.18089217">
												<SimplePredicate field="f7" operator="greaterOrEqual" value="1.6751033E-19"/>
											</Node>
										</Node>
										<Node score="0.07147226">
											<SimplePredicate field="f1" operator="greaterOrEqual" value="1.588604E-16"/>
										</Node>
									</Node>
									<Node score="-0.30928248">
										<SimplePredicate field="f7" operator="greaterOrEqual" value="4.5415246E-20"/>
										<Node score="-0.14006524">
											<SimplePredicate field="f5" operator="greaterOrEqual" value="1.3540945E-12"/>
											<Node score="-0.26552248">
												<SimplePredicate field="f1" operator="greaterOrEqual" value="4.9049462E-14"/>
											</Node>
										</Node>
										<Node score="-0.2314391">
											<SimplePredicate field="f2" operator="greaterOrEqual" value="3.5"/>
										</Node>
									</Node>
									<Node score="0.5740404">
										<SimplePredicate field="f3" operator="greaterOrEqual" value="9.413203E-17"/>
										<Node score="0.05441872">
											<SimplePredicate field="f7" operator="greaterOrEqual" value="2.7607545E-21"/>
										</Node>
									</Node>
									<Node score="-0.20477805">
										<SimplePredicate field="f7" operator="greaterOrEqual" value="6.756388E-23"/>
									</Node>
								</Node>
							</TreeModel>
						</Segment>
						<Segment id="8">
							<True/>
							<TreeModel functionName="regression" missingValueStrategy="none" noTrueChildStrategy="returnLastPrediction" splitCharacteristic="multiSplit" x-mathContext="float">
								<MiningSchema>
									<MiningField name="f0"/>
									<MiningField name="f1"/>
									<MiningField name="f2"/>
									<MiningField name="f3"/>
									<MiningField name="f4"/>
									<MiningField name="f5"/>
									<MiningField name="f6"/>
									<MiningField name="f7"/>
									<MiningField name="f8"/>
									<MiningField name="f9"/>
								</MiningSchema>
								<Node score="-0.27581617">
									<True/>
									<Node score="0.012547265">
										<SimplePredicate field="f8" operator="greaterOrEqual" value="0.5"/>
										<Node score="-3.106741E-4">
											<SimplePredicate field="f7" operator="greaterOrEqual" value="3.2494492E-16"/>
											<Node score="0.09572936">
												<SimplePredicate field="f5" operator="greaterOrEqual" value="1.1184352E-10"/>
												<Node score="-0.1967436">
													<SimplePredicate field="f1" operator="greaterOrEqual" value="3.9618023E-8"/>
													<Node score="0.2501106">
														<SimplePredicate field="f7" operator="greaterOrEqual" value="3.616865E-6"/>
														<Node score="-0.11594289">
															<SimplePredicate field="f9" operator="greaterOrEqual" value="1.5"/>
														</Node>
													</Node>
													<Node score="0.13124518">
														<SimplePredicate field="f0" operator="greaterOrEqual" value="1.5"/>
													</Node>
												</Node>
												<Node score="0.049748633">
													<SimplePredicate field="f9" operator="greaterOrEqual" value="2.5"/>
													<Node score="-0.16731504">
														<SimplePredicate field="f1" operator="greaterOrEqual" value="3.2226088E-13"/>
													</Node>
												</Node>
												<Node score="0.24780397">
													<SimplePredicate field="f5" operator="greaterOrEqual" value="7.921855E-6"/>
												</Node>
											</Node>
											<Node score="-0.24036907">
												<SimplePredicate field="f1" operator="greaterOrEqual" value="4.055505E-14"/>
												<Node score="0.31942403">
													<SimplePredicate field="f0" operator="greaterOrEqual" value="4.5"/>
													<Node score="0.0947948">
														<SimplePredicate field="f1" operator="greaterOrEqual" value="1.383868E-13"/>
													</Node>
												</Node>
												<Node score="-0.06544216">
													<SimplePredicate field="f5" operator="greaterOrEqual" value="2.5507462E-18"/>
												</Node>
											</Node>
											<Node score="0.1700699">
												<SimplePredicate field="f5" operator="greaterOrEqual" value="4.009326E-14"/>
												<Node score="0.030672802">
													<SimplePredicate field="f5" operator="greaterOrEqual" value="1.2359917E-12"/>
												</Node>
											</Node>
											<Node score="-0.087990984">
												<SimplePredicate field="f4" operator="greaterOrEqual" value="3.5"/>
											</Node>
										</Node>
										<Node score="-0.20818116">
											<SimplePredicate field="f7" operator="greaterOrEqual" value="3.4700966E-19"/>
											<Node score="0.13224305">
												<SimplePredicate field="f2" operator="greaterOrEqual" value="3.5"/>
												<Node score="0.1918861">
													<SimplePredicate field="f5" operator="greaterOrEqual" value="2.241102E-12"/>
													<Node score="0.3976565">
														<SimplePredicate field="f1" operator="greaterOrEqual" value="2.6399103E-13"/>
													</Node>
												</Node>
												<Node score="-0.062527865">
													<SimplePredicate field="f7" operator="greaterOrEqual" value="1.5333875E-17"/>
												</Node>
											</Node>
											<Node score="-0.0093436595">
												<SimplePredicate field="f3" operator="greaterOrEqual" value="3.0145786E-15"/>
												<Node score="-0.10515347">
													<SimplePredicate field="f9" operator="greaterOrEqual" value="1.5"/>
												</Node>
											</Node>
											<Node score="-0.1037411">
												<SimplePredicate field="f7" operator="greaterOrEqual" value="2.714341E-17"/>
											</Node>
										</Node>
										<Node score="0.32414484">
											<SimplePredicate field="f3" operator="greaterOrEqual" value="1.521007E-16"/>
											<Node score="-0.222583">
												<SimplePredicate field="f6" operator="greaterOrEqual" value="3.5"/>
												<Node score="-0.0053862324">
													<SimplePredicate field="f5" operator="greaterOrEqual" value="9.927479E-18"/>
												</Node>
											</Node>
											<Node score="0.109490894">
												<SimplePredicate field="f1" operator="greaterOrEqual" value="2.2104644E-14"/>
											</Node>
										</Node>
										<Node score="-0.107365094">
											<SimplePredicate field="f7" operator="greaterOrEqual" value="6.756388E-23"/>
											<Node score="0.15555677">
												<SimplePredicate field="f2" operator="greaterOrEqual" value="5.5"/>
											</Node>
										</Node>
										<Node score="0.29619506">
											<SimplePredicate field="f5" operator="greaterOrEqual" value="2.2236263E-17"/>
										</Node>
									</Node>
									<Node score="-0.24435091">
										<SimplePredicate field="f7" operator="greaterOrEqual" value="1.5193789E-14"/>
										<Node score="-0.28021738">
											<SimplePredicate field="f9" operator="greaterOrEqual" value="2.5"/>
											<Node score="-0.0063570887">
												<SimplePredicate field="f5" operator="greaterOrEqual" value="3.022386E-6"/>
												<Node score="-0.23477064">
													<SimplePredicate field="f7" operator="greaterOrEqual" value="6.881719E-8"/>
												</Node>
												<Node score="0.36008027">
													<SimplePredicate field="f9" operator="greaterOrEqual" value="3.5"/>
												</Node>
											</Node>
											<Node score="-0.13381156">
												<SimplePredicate field="f7" operator="greaterOrEqual" value="3.7007871E-6"/>
												<Node score="0.17613475">
													<SimplePredicate field="f5" operator="greaterOrEqual" value="2.0869022E-11"/>
												</Node>
											</Node>
											<Node score="-0.22719502">
												<SimplePredicate field="f2" operator="greaterOrEqual" value="2.5"/>
											</Node>
										</Node>
										<Node score="0.041479677">
											<SimplePredicate field="f5" operator="greaterOrEqual" value="9.933027E-12"/>
											<Node score="-0.03313424">
												<SimplePredicate field="f1" operator="greaterOrEqual" value="1.5342554E-13"/>
												<Node score="-0.19547264">
													<SimplePredicate field="f1" operator="greaterOrEqual" value="1.3996593E-9"/>
												</Node>
											</Node>
											<Node score="0.24910101">
												<SimplePredicate field="f5" operator="greaterOrEqual" value="9.743613E-10"/>
											</Node>
										</Node>
										<Node score="-0.07449466">
											<SimplePredicate field="f2" operator="greaterOrEqual" value="2.5"/>
											<Node score="-0.18150118">
												<SimplePredicate field="f1" operator="greaterOrEqual" value="9.9950345E-15"/>
											</Node>
										</Node>
										<Node score="-0.052994892">
											<SimplePredicate field="f7" operator="greaterOrEqual" value="1.6415711E-6"/>
										</Node>
									</Node>
									<Node score="-0.09490292">
										<SimplePredicate field="f3" operator="greaterOrEqual" value="1.230231E-12"/>
										<Node score="0.13493545">
											<SimplePredicate field="f3" operator="greaterOrEqual" value="1.2502423E-12"/>
											<Node score="-0.30122864">
												<SimplePredicate field="f7" operator="greaterOrEqual" value="1.1905881E-18"/>
											</Node>
											<Node score="-0.22628261">
												<SimplePredicate field="f5" operator="greaterOrEqual" value="1.628614E-15"/>
											</Node>
										</Node>
										<Node score="0.1379904">
											<SimplePredicate field="f9" operator="greaterOrEqual" value="2.5"/>
											<Node score="-0.19181503">
												<SimplePredicate field="f7" operator="greaterOrEqual" value="2.0311244E-19"/>
											</Node>
										</Node>
										<Node score="0.09846656">
											<SimplePredicate field="f7" operator="greaterOrEqual" value="8.310543E-16"/>
										</Node>
									</Node>
									<Node score="-0.20524944">
										<SimplePredicate field="f5" operator="greaterOrEqual" value="1.3009704E-12"/>
										<Node score="-0.27912405">
											<SimplePredicate field="f1" operator="greaterOrEqual" value="1.2522113E-12"/>
											<Node score="-0.07970728">
												<SimplePredicate field="f5" operator="greaterOrEqual" value="5.42395E-6"/>
											</Node>
										</Node>
										<Node score="-0.05799266">
											<SimplePredicate field="f5" operator="greaterOrEqual" value="2.2635929E-10"/>
										</Node>
									</Node>
									<Node score="-0.3118434">
										<SimplePredicate field="f9" operator="greaterOrEqual" value="2.5"/>
										<Node score="-0.17752019">
											<SimplePredicate field="f0" operator="greaterOrEqual" value="5.5"/>
										</Node>
									</Node>
									<Node score="-0.13870199">
										<SimplePredicate field="f2" operator="greaterOrEqual" value="3.5"/>
									</Node>
								</Node>
							</TreeModel>
						</Segment>
						<Segment id="9">
							<True/>
							<TreeModel functionName="regression" missingValueStrategy="none" noTrueChildStrategy="returnLastPrediction" splitCharacteristic="multiSplit" x-mathContext="float">
								<MiningSchema>
									<MiningField name="f0"/>
									<MiningField name="f1"/>
									<MiningField name="f2"/>
									<MiningField name="f3"/>
									<MiningField name="f4"/>
									<MiningField name="f5"/>
									<MiningField name="f6"/>
									<MiningField name="f7"/>
									<MiningField name="f8"/>
									<MiningField name="f9"/>
								</MiningSchema>
								<Node score="-0.11453179">
									<True/>
									<Node score="0.047507655">
										<SimplePredicate field="f8" operator="greaterOrEqual" value="0.5"/>
										<Node score="-0.21014069">
											<SimplePredicate field="f9" operator="greaterOrEqual" value="2.5"/>
											<Node score="0.6016595">
												<SimplePredicate field="f9" operator="greaterOrEqual" value="6.5"/>
												<Node score="0.19720913">
													<SimplePredicate field="f7" operator="greaterOrEqual" value="1.28549864E-17"/>
													<Node score="0.44717613">
														<SimplePredicate field="f9" operator="greaterOrEqual" value="9.5"/>
														<Node score="-0.1524158">
															<SimplePredicate field="f9" operator="greaterOrEqual" value="13.5"/>
														</Node>
													</Node>
													<Node score="-0.09374313">
														<SimplePredicate field="f5" operator="greaterOrEqual" value="1.9167664E-13"/>
													</Node>
												</Node>
												<Node score="-0.29294622">
													<SimplePredicate field="f6" operator="greaterOrEqual" value="4.5"/>
												</Node>
												<Node score="0.3396279">
													<SimplePredicate field="f1" operator="greaterOrEqual" value="1.8604156E-13"/>
												</Node>
											</Node>
											<Node score="-0.1210221">
												<SimplePredicate field="f3" operator="greaterOrEqual" value="1.8369225E-13"/>
												<Node score="-0.20978339">
													<SimplePredicate field="f3" operator="greaterOrEqual" value="2.0109307E-11"/>
													<Node score="-0.035063416">
														<SimplePredicate field="f5" operator="greaterOrEqual" value="6.2150085E-9"/>
													</Node>
												</Node>
												<Node score="-0.02761318">
													<SimplePredicate field="f7" operator="greaterOrEqual" value="1.6104781E-12"/>
												</Node>
											</Node>
											<Node score="-0.0026164877">
												<SimplePredicate field="f6" operator="greaterOrEqual" value="6.5"/>
												<Node score="0.5982439">
													<SimplePredicate field="f5" operator="greaterOrEqual" value="1.562996E-6"/>
												</Node>
											</Node>
											<Node score="-0.11433304">
												<SimplePredicate field="f6" operator="greaterOrEqual" value="3.5"/>
											</Node>
										</Node>
										<Node score="0.056827586">
											<SimplePredicate field="f3" operator="greaterOrEqual" value="3.252211E-16"/>
											<Node score="-0.08472185">
												<SimplePredicate field="f5" operator="greaterOrEqual" value="3.8681618E-13"/>
												<Node score="0.038885605">
													<SimplePredicate field="f4" operator="greaterOrEqual" value="2.5"/>
													<Node score="0.13485648">
														<SimplePredicate field="f5" operator="greaterOrEqual" value="5.008699E-10"/>
													</Node>
												</Node>
												<Node score="0.056021683">
													<SimplePredicate field="f5" operator="greaterOrEqual" value="7.0755085E-8"/>
												</Node>
											</Node>
											<Node score="-0.16839708">
												<SimplePredicate field="f1" operator="greaterOrEqual" value="2.5184307E-16"/>
												<Node score="-0.02136588">
													<SimplePredicate field="f5" operator="greaterOrEqual" value="6.160615E-17"/>
												</Node>
											</Node>
											<Node score="-0.051670816">
												<SimplePredicate field="f4" operator="greaterOrEqual" value="3.5"/>
											</Node>
										</Node>
										<Node score="-0.004796579">
											<SimplePredicate field="f2" operator="greaterOrEqual" value="3.5"/>
											<Node score="0.16683003">
												<SimplePredicate field="f5" operator="greaterOrEqual" value="1.3060145E-11"/>
												<Node score="0.38217536">
													<SimplePredicate field="f5" operator="greaterOrEqual" value="4.691281E-8"/>
												</Node>
											</Node>
											<Node score="0.26684454">
												<SimplePredicate field="f0" operator="greaterOrEqual" value="4.5"/>
											</Node>
										</Node>
										<Node score="-0.0030209573">
											<SimplePredicate field="f7" operator="greaterOrEqual" value="6.1270234E-17"/>
											<Node score="-0.15096945">
												<SimplePredicate field="f4" operator="greaterOrEqual" value="3.5"/>
											</Node>
										</Node>
										<Node score="-0.1626493">
											<SimplePredicate field="f7" operator="greaterOrEqual" value="2.9652583E-20"/>
										</Node>
									</Node>
									<Node score="-0.1162942">
										<SimplePredicate field="f7" operator="greaterOrEqual" value="2.446528E-14"/>
										<Node score="-0.2342828">
											<SimplePredicate field="f9" operator="greaterOrEqual" value="2.5"/>
											<Node score="-0.26740086">
												<SimplePredicate field="f3" operator="greaterOrEqual" value="5.9580414E-12"/>
												<Node score="0.32766587">
													<SimplePredicate field="f5" operator="greaterOrEqual" value="1.0316942E-5"/>
													<Node score="-0.13344754">
														<SimplePredicate field="f3" operator="greaterOrEqual" value="6.6701446E-8"/>
													</Node>
												</Node>
												<Node score="-0.12320036">
													<SimplePredicate field="f7" operator="greaterOrEqual" value="2.255952E-6"/>
												</Node>
											</Node>
											<Node score="-0.06617334">
												<SimplePredicate field="f7" operator="greaterOrEqual" value="5.4170522E-12"/>
												<Node score="0.6340068">
													<SimplePredicate field="f0" operator="greaterOrEqual" value="4.5"/>
												</Node>
											</Node>
											<Node score="-0.063045256">
												<SimplePredicate field="f5" operator="greaterOrEqual" value="2.811496E-10"/>
											</Node>
										</Node>
										<Node score="0.031035235">
											<SimplePredicate field="f5" operator="greaterOrEqual" value="9.4066074E-11"/>
											<Node score="-0.17103261">
												<SimplePredicate field="f1" operator="greaterOrEqual" value="3.0345107E-10"/>
												<Node score="0.16842169">
													<SimplePredicate field="f5" operator="greaterOrEqual" value="1.01180514E-4"/>
												</Node>
											</Node>
											<Node score="0.2616993">
												<SimplePredicate field="f5" operator="greaterOrEqual" value="6.082839E-7"/>
											</Node>
										</Node>
										<Node score="-0.21034582">
											<SimplePredicate field="f3" operator="greaterOrEqual" value="6.139234E-10"/>
											<Node score="0.024111446">
												<SimplePredicate field="f7" operator="greaterOrEqual" value="4.6105684E-5"/>
											</Node>
										</Node>
										<Node score="0.1453509">
											<SimplePredicate field="f7" operator="greaterOrEqual" value="4.5304773E-9"/>
										</Node>
									</Node>
									<Node score="-0.053982396">
										<SimplePredicate field="f3" operator="greaterOrEqual" value="1.230231E-12"/>
										<Node score="0.028025255">
											<SimplePredicate field="f3" operator="greaterOrEqual" value="1.2502423E-12"/>
											<Node score="-0.30029404">
												<SimplePredicate field="f5" operator="greaterOrEqual" value="3.7376368E-17"/>
											</Node>
											<Node score="-0.2535688">
												<SimplePredicate field="f9" operator="greaterOrEqual" value="2.5"/>
											</Node>
										</Node>
										<Node score="0.02539645">
											<SimplePredicate field="f9" operator="greaterOrEqual" value="2.5"/>
											<Node score="-0.17044973">
												<SimplePredicate field="f7" operator="greaterOrEqual" value="1.1505206E-18"/>
											</Node>
										</Node>
										<Node score="0.16138159">
											<SimplePredicate field="f7" operator="greaterOrEqual" value="4.5705047E-15"/>
										</Node>
									</Node>
									<Node score="-0.30410892">
										<SimplePredicate field="f9" operator="greaterOrEqual" value="2.5"/>
										<Node score="-0.20769519">
											<SimplePredicate field="f5" operator="greaterOrEqual" value="1.4042464E-6"/>
											<Node score="0.3723665">
												<SimplePredicate field="f2" operator="greaterOrEqual" value="3.5"/>
											</Node>
										</Node>
										<Node score="-0.2437992">
											<SimplePredicate field="f2" operator="greaterOrEqual" value="3.5"/>
										</Node>
									</Node>
									<Node score="-0.2553957">
										<SimplePredicate field="f7" operator="greaterOrEqual" value="4.5418588E-20"/>
										<Node score="-0.16521028">
											<SimplePredicate field="f5" operator="greaterOrEqual" value="1.3540945E-12"/>
										</Node>
									</Node>
									<Node score="0.18728726">
										<SimplePredicate field="f3" operator="greaterOrEqual" value="4.060275E-18"/>
									</Node>
								</Node>
							</TreeModel>
						</Segment>
						<Segment id="10">
							<True/>
							<TreeModel functionName="regression" missingValueStrategy="none" noTrueChildStrategy="returnLastPrediction" splitCharacteristic="multiSplit" x-mathContext="float">
								<MiningSchema>
									<MiningField name="f0"/>
									<MiningField name="f1"/>
									<MiningField name="f2"/>
									<MiningField name="f3"/>
									<MiningField name="f4"/>
									<MiningField name="f5"/>
									<MiningField name="f6"/>
									<MiningField name="f7"/>
									<MiningField name="f8"/>
									<MiningField name="f9"/>
								</MiningSchema>
								<Node score="-0.24242865">
									<True/>
									<Node score="0.089312345">
										<SimplePredicate field="f8" operator="greaterOrEqual" value="0.5"/>
										<Node score="-0.0034136092">
											<SimplePredicate field="f7" operator="greaterOrEqual" value="1.2885995E-10"/>
											<Node score="-0.20471561">
												<SimplePredicate field="f3" operator="greaterOrEqual" value="2.2831825E-10"/>
												<Node score="0.07986391">
													<SimplePredicate field="f7" operator="greaterOrEqual" value="3.0070314E-5"/>
													<Node score="0.43994054">
														<SimplePredicate field="f3" operator="greaterOrEqual" value="1.9466434E-6"/>
														<Node score="-0.09068444">
															<SimplePredicate field="f7" operator="greaterOrEqual" value="7.2532304E-5"/>
														</Node>
													</Node>
													<Node score="0.28175065">
														<SimplePredicate field="f1" operator="greaterOrEqual" value="3.4607726E-9"/>
													</Node>
												</Node>
												<Node score="0.10255553">
													<SimplePredicate field="f6" operator="greaterOrEqual" value="1.5"/>
													<Node score="-0.04168597">
														<SimplePredicate field="f2" operator="greaterOrEqual" value="3.5"/>
													</Node>
												</Node>
												<Node score="-0.030003214">
													<SimplePredicate field="f7" operator="greaterOrEqual" value="4.3895545E-7"/>
												</Node>
											</Node>
											<Node score="-0.22032078">
												<SimplePredicate field="f9" operator="greaterOrEqual" value="1.5"/>
												<Node score="0.09031078">
													<SimplePredicate field="f2" operator="greaterOrEqual" value="1.5"/>
													<Node score="0.22728777">
														<SimplePredicate field="f7" operator="greaterOrEqual" value="1.1230814E-8"/>
													</Node>
												</Node>
												<Node score="0.08193511">
													<SimplePredicate field="f7" operator="greaterOrEqual" value="4.259926E-6"/>
												</Node>
											</Node>
											<Node score="0.07364117">
												<SimplePredicate field="f7" operator="greaterOrEqual" value="3.223053E-8"/>
												<Node score="0.22704333">
													<SimplePredicate field="f3" operator="greaterOrEqual" value="1.7977395E-13"/>
												</Node>
											</Node>
											<Node score="0.10183831">
												<SimplePredicate field="f6" operator="greaterOrEqual" value="2.5"/>
											</Node>
										</Node>
										<Node score="-0.05260812">
											<SimplePredicate field="f6" operator="greaterOrEqual" value="2.5"/>
											<Node score="0.24594924">
												<SimplePredicate field="f3" operator="greaterOrEqual" value="1.22999E-12"/>
												<Node score="-0.24277464">
													<SimplePredicate field="f3" operator="greaterOrEqual" value="1.2959603E-12"/>
													<Node score="-0.052384935">
														<SimplePredicate field="f7" operator="greaterOrEqual" value="1.3296319E-12"/>
													</Node>
												</Node>
												<Node score="0.0050178776">
													<SimplePredicate field="f9" operator="greaterOrEqual" value="1.5"/>
												</Node>
											</Node>
											<Node score="-0.26435277">
												<SimplePredicate field="f3" operator="greaterOrEqual" value="3.3462033E-14"/>
												<Node score="-0.023749433">
													<SimplePredicate field="f7" operator="greaterOrEqual" value="3.318384E-14"/>
												</Node>
											</Node>
											<Node score="0.012998364">
												<SimplePredicate field="f7" operator="greaterOrEqual" value="1.9082428E-15"/>
											</Node>
										</Node>
										<Node score="-0.1835354">
											<SimplePredicate field="f5" operator="greaterOrEqual" value="8.756089E-22"/>
											<Node score="-0.28663194">
												<SimplePredicate field="f7" operator="greaterOrEqual" value="1.5458159E-11"/>
												<Node score="0.19366555">
													<SimplePredicate field="f4" operator="greaterOrEqual" value="4.5"/>
												</Node>
											</Node>
											<Node score="-0.27998298">
												<SimplePredicate field="f1" operator="greaterOrEqual" value="3.1942654E-10"/>
											</Node>
										</Node>
										<Node score="-0.08450323">
											<SimplePredicate field="f1" operator="greaterOrEqual" value="1.2470682E-22"/>
											<Node score="0.2916344">
												<SimplePredicate field="f1" operator="greaterOrEqual" value="6.731612E-22"/>
											</Node>
										</Node>
										<Node score="0.38758674">
											<SimplePredicate field="f1" operator="greaterOrEqual" value="5.7474405E-23"/>
										</Node>
									</Node>
									<Node score="-0.070373945">
										<SimplePredicate field="f7" operator="greaterOrEqual" value="9.278195E-15"/>
										<Node score="-0.20035188">
											<SimplePredicate field="f9" operator="greaterOrEqual" value="2.5"/>
											<Node score="0.17064488">
												<SimplePredicate field="f5" operator="greaterOrEqual" value="2.6492448E-13"/>
												<Node score="-0.173797">
													<SimplePredicate field="f1" operator="greaterOrEqual" value="3.2139188E-14"/>
													<Node score="0.2881205">
														<SimplePredicate field="f2" operator="greaterOrEqual" value="4.5"/>
													</Node>
												</Node>
												<Node score="-0.29880083">
													<SimplePredicate field="f3" operator="greaterOrEqual" value="6.827036E-8"/>
												</Node>
											</Node>
											<Node score="0.41405094">
												<SimplePredicate field="f7" operator="greaterOrEqual" value="2.255952E-6"/>
												<Node score="-0.11608747">
													<SimplePredicate field="f7" operator="greaterOrEqual" value="2.4876722E-6"/>
												</Node>
											</Node>
											<Node score="-0.26042396">
												<SimplePredicate field="f3" operator="greaterOrEqual" value="4.8734844E-12"/>
											</Node>
										</Node>
										<Node score="0.34852722">
											<SimplePredicate field="f5" operator="greaterOrEqual" value="4.280526E-13"/>
											<Node score="-0.09231479">
												<SimplePredicate field="f1" operator="greaterOrEqual" value="6.9761606E-14"/>
												<Node score="0.035642095">
													<SimplePredicate field="f5" operator="greaterOrEqual" value="1.9698746E-8"/>
												</Node>
											</Node>
											<Node score="0.050770994">
												<SimplePredicate field="f1" operator="greaterOrEqual" value="3.6456166E-16"/>
											</Node>
										</Node>
										<Node score="-0.15221013">
											<SimplePredicate field="f1" operator="greaterOrEqual" value="2.5550294E-16"/>
											<Node score="0.3366998">
												<SimplePredicate field="f0" operator="greaterOrEqual" value="5.5"/>
											</Node>
										</Node>
										<Node score="0.37637982">
											<SimplePredicate field="f5" operator="greaterOrEqual" value="2.5441482E-16"/>
										</Node>
									</Node>
									<Node score="0.5289119">
										<SimplePredicate field="f5" operator="greaterOrEqual" value="1.3009704E-12"/>
										<Node score="-0.17829438">
											<SimplePredicate field="f1" operator="greaterOrEqual" value="3.5455493E-13"/>
											<Node score="0.39746392">
												<SimplePredicate field="f5" operator="greaterOrEqual" value="5.4301495E-6"/>
												<Node score="-0.0966916">
													<SimplePredicate field="f1" operator="greaterOrEqual" value="7.6796136E-10"/>
												</Node>
											</Node>
											<Node score="-0.2745315">
												<SimplePredicate field="f1" operator="greaterOrEqual" value="3.1090963E-10"/>
											</Node>
										</Node>
										<Node score="0.15777083">
											<SimplePredicate field="f5" operator="greaterOrEqual" value="2.2590832E-10"/>
											<Node score="-0.24023838">
												<SimplePredicate field="f2" operator="greaterOrEqual" value="4.5"/>
											</Node>
										</Node>
										<Node score="-0.123254545">
											<SimplePredicate field="f1" operator="greaterOrEqual" value="5.1723077E-16"/>
										</Node>
									</Node>
									<Node score="-0.117891155">
										<SimplePredicate field="f3" operator="greaterOrEqual" value="1.2019897E-12"/>
										<Node score="-0.0139096575">
											<SimplePredicate field="f3" operator="greaterOrEqual" value="1.2502423E-12"/>
											<Node score="-0.28929073">
												<SimplePredicate field="f7" operator="greaterOrEqual" value="1.1905881E-18"/>
											</Node>
										</Node>
										<Node score="0.25845015">
											<SimplePredicate field="f0" operator="greaterOrEqual" value="4.5"/>
										</Node>
									</Node>
									<Node score="-0.30107668">
										<SimplePredicate field="f9" operator="greaterOrEqual" value="2.5"/>
										<Node score="-0.22322413">
											<SimplePredicate field="f2" operator="greaterOrEqual" value="3.5"/>
										</Node>
									</Node>
									<Node score="-0.05616598">
										<SimplePredicate field="f2" operator="greaterOrEqual" value="3.5"/>
									</Node>
								</Node>
							</TreeModel>
						</Segment>
						<Segment id="11">
							<True/>
							<TreeModel functionName="regression" missingValueStrategy="none" noTrueChildStrategy="returnLastPrediction" splitCharacteristic="multiSplit" x-mathContext="float">
								<MiningSchema>
									<MiningField name="f0"/>
									<MiningField name="f1"/>
									<MiningField name="f2"/>
									<MiningField name="f3"/>
									<MiningField name="f4"/>
									<MiningField name="f5"/>
									<MiningField name="f6"/>
									<MiningField name="f7"/>
									<MiningField name="f8"/>
									<MiningField name="f9"/>
								</MiningSchema>
								<Node score="-0.013200915">
									<True/>
									<Node score="0.0065497593">
										<SimplePredicate field="f8" operator="greaterOrEqual" value="0.5"/>
										<Node score="0.2086919">
											<SimplePredicate field="f5" operator="greaterOrEqual" value="2.5771763E-11"/>
											<Node score="0.10886546">
												<SimplePredicate field="f0" operator="greaterOrEqual" value="1.5"/>
												<Node score="0.17387757">
													<SimplePredicate field="f5" operator="greaterOrEqual" value="1.7026078E-8"/>
													<Node score="0.79768634">
														<SimplePredicate field="f1" operator="greaterOrEqual" value="5.4579665E-9"/>
														<Node score="0.27871576">
															<SimplePredicate field="f3" operator="greaterOrEqual" value="4.6982573E-13"/>
														</Node>
													</Node>
													<Node score="0.07164193">
														<SimplePredicate field="f1" operator="greaterOrEqual" value="4.6099832E-11"/>
													</Node>
												</Node>
												<Node score="-0.041086875">
													<SimplePredicate field="f1" operator="greaterOrEqual" value="1.5064477E-13"/>
													<Node score="0.048944484">
														<SimplePredicate field="f5" operator="greaterOrEqual" value="3.0162164E-9"/>
													</Node>
												</Node>
												<Node score="-0.012731415">
													<SimplePredicate field="f4" operator="greaterOrEqual" value="3.5"/>
