<?xml version="1.0" encoding="UTF-8" standalone="yes"?>
<PMML xmlns="http://www.dmg.org/PMML-4_3" xmlns:data="http://jpmml.org/jpmml-model/InlineTable" version="4.3">
	<Header>
		<Application name="JPMML-XGBoost" version="1.3.1"/>
		<Timestamp>2018-07-10T14:06:48Z</Timestamp>
	</Header>
	<DataDictionary>
		<DataField name="_target" optype="categorical" dataType="string">
			<Value value="0"/>
			<Value value="1"/>
		</DataField>
		<DataField name="f0" optype="continuous" dataType="float"/>
		<DataField name="f1" optype="continuous" dataType="float"/>
		<DataField name="f2" optype="continuous" dataType="float"/>
		<DataField name="f3" optype="continuous" dataType="float"/>
		<DataField name="f4" optype="continuous" dataType="float"/>
		<DataField name="f5" optype="continuous" dataType="float"/>
		<DataField name="f6" optype="continuous" dataType="float"/>
		<DataField name="f7" optype="continuous" dataType="float"/>
		<DataField name="f8" optype="continuous" dataType="float"/>
		<DataField name="f9" optype="continuous" dataType="float"/>
	</DataDictionary>
	<MiningModel functionName="classification" x-mathContext="float">
		<MiningSchema>
			<MiningField name="_target" usageType="target"/>
			<MiningField name="f1"/>
			<MiningField name="f4"/>
			<MiningField name="f0"/>
			<MiningField name="f2"/>
			<MiningField name="f9"/>
			<MiningField name="f7"/>
			<MiningField name="f8"/>
			<MiningField name="f3"/>
			<MiningField name="f5"/>
			<MiningField name="f6"/>
		</MiningSchema>
		<Segmentation multipleModelMethod="modelChain">
			<Segment id="1">
				<True/>
				<MiningModel functionName="regression" x-mathContext="float">
					<MiningSchema>
						<MiningField name="f1"/>
						<MiningField name="f4"/>
						<MiningField name="f0"/>
						<MiningField name="f2"/>
						<MiningField name="f9"/>
						<MiningField name="f7"/>
						<MiningField name="f8"/>
						<MiningField name="f3"/>
						<MiningField name="f5"/>
						<MiningField name="f6"/>
					</MiningSchema>
					<Output>
						<OutputField name="xgbValue" optype="continuous" dataType="float" feature="predictedValue" isFinalResult="false"/>
					</Output>
					<Segmentation multipleModelMethod="sum">
						<Segment id="1">
							<True/>
							<TreeModel functionName="regression" missingValueStrategy="none" noTrueChildStrategy="returnLastPrediction" splitCharacteristic="multiSplit" x-mathContext="float">
								<MiningSchema>
									<MiningField name="f0"/>
									<MiningField name="f1"/>
									<MiningField name="f2"/>
									<MiningField name="f3"/>
									<MiningField name="f4"/>
									<MiningField name="f5"/>
									<MiningField name="f6"/>
									<MiningField name="f7"/>
									<MiningField name="f8"/>
									<MiningField name="f9"/>
								</MiningSchema>
								<Node score="0.45454547">
									<True/>
									<Node score="-0.5812717">
										<SimplePredicate field="f9" operator="greaterOrEqual" value="2.5"/>
										<Node score="-0.56259054">
											<SimplePredicate field="f9" operator="greaterOrEqual" value="3.5"/>
											<Node score="-0.3250646">
												<SimplePredicate field="f8" operator="greaterOrEqual" value="0.5"/>
												<Node score="-0.5238806">
													<SimplePredicate field="f9" operator="greaterOrEqual" value="4.5"/>
													<Node score="-0.49887642">
														<SimplePredicate field="f2" operator="greaterOrEqual" value="4.5"/>
														<Node score="-0.39387265">
															<SimplePredicate field="f4" operator="greaterOrEqual" value="4.5"/>
														</Node>
													</Node>
													<Node score="-0.45397988">
														<SimplePredicate field="f9" operator="greaterOrEqual" value="5.5"/>
													</Node>
												</Node>
												<Node score="-0.3196663">
													<SimplePredicate field="f4" operator="greaterOrEqual" value="4.5"/>
													<Node score="-0.18613899">
														<SimplePredicate field="f2" operator="greaterOrEqual" value="4.5"/>
													</Node>
												</Node>
												<Node score="-0.42975208">
													<SimplePredicate field="f0" operator="greaterOrEqual" value="4.5"/>
												</Node>
											</Node>
											<Node score="-0.58451617">
												<SimplePredicate field="f2" operator="greaterOrEqual" value="4.5"/>
												<Node score="-0.49074808">
													<SimplePredicate field="f0" operator="greaterOrEqual" value="2.5"/>
													<Node score="-0.17647061">
														<SimplePredicate field="f3" operator="greaterOrEqual" value="3.464157E-12"/>
													</Node>
												</Node>
											</Node>
										</Node>
										<Node score="-0.5408696">
											<SimplePredicate field="f2" operator="greaterOrEqual" value="4.5"/>
											<Node score="-0.3882104">
												<SimplePredicate field="f4" operator="greaterOrEqual" value="5.5"/>
												<Node score="-0.4864502">
													<SimplePredicate field="f4" operator="greaterOrEqual" value="17.5"/>
													<Node score="-0.0">
														<SimplePredicate field="f0" operator="greaterOrEqual" value="234.5"/>
													</Node>
												</Node>
												<Node score="-0.47102213">
													<SimplePredicate field="f2" operator="greaterOrEqual" value="13.5"/>
												</Node>
											</Node>
											<Node score="-0.515519">
												<SimplePredicate field="f7" operator="greaterOrEqual" value="2.283112E-13"/>
												<Node score="-0.4436508">
													<SimplePredicate field="f4" operator="greaterOrEqual" value="4.5"/>
												</Node>
											</Node>
										</Node>
										<Node score="-0.55545855">
											<SimplePredicate field="f8" operator="greaterOrEqual" value="0.5"/>
											<Node score="-0.424">
												<SimplePredicate field="f6" operator="greaterOrEqual" value="6.5"/>
												<Node score="-0.0">
													<SimplePredicate field="f6" operator="greaterOrEqual" value="8.5"/>
												</Node>
											</Node>
											<Node score="-0.5329345">
												<SimplePredicate field="f2" operator="greaterOrEqual" value="2.5"/>
											</Node>
										</Node>
									</Node>
									<Node score="0.4875">
										<SimplePredicate field="f4" operator="greaterOrEqual" value="4.5"/>
										<Node score="0.35">
											<SimplePredicate field="f6" operator="greaterOrEqual" value="4.5"/>
											<Node score="-0.22632353">
												<SimplePredicate field="f8" operator="greaterOrEqual" value="0.5"/>
												<Node score="-0.11252975">
													<SimplePredicate field="f1" operator="greaterOrEqual" value="3.8689559E-16"/>
													<Node score="-0.026945455">
														<SimplePredicate field="f6" operator="greaterOrEqual" value="6.5"/>
													</Node>
												</Node>
												<Node score="-0.123636365">
													<SimplePredicate field="f6" operator="greaterOrEqual" value="6.5"/>
												</Node>
											</Node>
											<Node score="-0.37714288">
												<SimplePredicate field="f9" operator="greaterOrEqual" value="1.5"/>
												<Node score="-0.4741507">
													<SimplePredicate field="f0" operator="greaterOrEqual" value="11.5"/>
												</Node>
											</Node>
											<Node score="0.5696203">
												<SimplePredicate field="f1" operator="greaterOrEqual" value="5.7864094E-15"/>
											</Node>
										</Node>
										<Node score="-0.4260041">
											<SimplePredicate field="f8" operator="greaterOrEqual" value="0.5"/>
											<Node score="-0.29903182">
												<SimplePredicate field="f9" operator="greaterOrEqual" value="1.5"/>
												<Node score="-0.2126783">
													<SimplePredicate field="f6" operator="greaterOrEqual" value="2.5"/>
												</Node>
											</Node>
											<Node score="-0.3451401">
												<SimplePredicate field="f5" operator="greaterOrEqual" value="4.770519E-16"/>
											</Node>
										</Node>
										<Node score="-0.33793107">
											<SimplePredicate field="f9" operator="greaterOrEqual" value="1.5"/>
											<Node score="-0.51797134">
												<SimplePredicate field="f4" operator="greaterOrEqual" value="8.5"/>
											</Node>
										</Node>
									</Node>
									<Node score="-0.38289365">
										<SimplePredicate field="f8" operator="greaterOrEqual" value="0.5"/>
										<Node score="-0.5123894">
											<SimplePredicate field="f9" operator="greaterOrEqual" value="1.5"/>
											<Node score="-0.27602133">
												<SimplePredicate field="f4" operator="greaterOrEqual" value="2.5"/>
												<Node score="-0.19396052">
													<SimplePredicate field="f5" operator="greaterOrEqual" value="2.018737E-15"/>
												</Node>
											</Node>
											<Node score="-0.3028704">
												<SimplePredicate field="f1" operator="greaterOrEqual" value="4.770519E-16"/>
											</Node>
										</Node>
										<Node score="-0.40124288">
											<SimplePredicate field="f4" operator="greaterOrEqual" value="2.5"/>
											<Node score="-0.28192356">
												<SimplePredicate field="f5" operator="greaterOrEqual" value="2.018737E-15"/>
											</Node>
										</Node>
										<Node score="-0.5477237">
											<SimplePredicate field="f0" operator="greaterOrEqual" value="2.5"/>
										</Node>
									</Node>
									<Node score="-0.5617754">
										<SimplePredicate field="f9" operator="greaterOrEqual" value="1.5"/>
										<Node score="-0.519403">
											<SimplePredicate field="f4" operator="greaterOrEqual" value="2.5"/>
											<Node score="-0.4443114">
												<SimplePredicate field="f2" operator="greaterOrEqual" value="4.5"/>
											</Node>
										</Node>
									</Node>
									<Node score="-0.16363637">
										<SimplePredicate field="f2" operator="greaterOrEqual" value="13.0"/>
										<Node score="0.20000002">
											<SimplePredicate field="f2" operator="greaterOrEqual" value="21.5"/>
										</Node>
									</Node>
									<Node score="0.29361704">
										<SimplePredicate field="f5" operator="greaterOrEqual" value="6.2265807E-13"/>
									</Node>
								</Node>
							</TreeModel>
						</Segment>
						<Segment id="2">
							<True/>
							<TreeModel functionName="regression" missingValueStrategy="none" noTrueChildStrategy="returnLastPrediction" splitCharacteristic="multiSplit" x-mathContext="float">
								<MiningSchema>
									<MiningField name="f0"/>
									<MiningField name="f1"/>
									<MiningField name="f2"/>
									<MiningField name="f3"/>
									<MiningField name="f4"/>
									<MiningField name="f5"/>
									<MiningField name="f6"/>
									<MiningField name="f7"/>
									<MiningField name="f8"/>
									<MiningField name="f9"/>
								</MiningSchema>
								<Node score="0.36360642">
									<True/>
									<Node score="-0.4475689">
										<SimplePredicate field="f9" operator="greaterOrEqual" value="2.5"/>
										<Node score="-0.43169394">
											<SimplePredicate field="f9" operator="greaterOrEqual" value="3.5"/>
											<Node score="-0.28690866">
												<SimplePredicate field="f8" operator="greaterOrEqual" value="0.5"/>
												<Node score="-0.40517214">
													<SimplePredicate field="f9" operator="greaterOrEqual" value="4.5"/>
													<Node score="-0.3228991">
														<SimplePredicate field="f9" operator="greaterOrEqual" value="5.5"/>
														<Node score="-0.19164847">
															<SimplePredicate field="f2" operator="greaterOrEqual" value="8.5"/>
														</Node>
													</Node>
													<Node score="-0.34030846">
														<SimplePredicate field="f2" operator="greaterOrEqual" value="3.5"/>
													</Node>
												</Node>
												<Node score="-0.20861746">
													<SimplePredicate field="f4" operator="greaterOrEqual" value="6.5"/>
													<Node score="-0.080853514">
														<SimplePredicate field="f2" operator="greaterOrEqual" value="6.5"/>
													</Node>
												</Node>
												<Node score="-0.21154201">
													<SimplePredicate field="f4" operator="greaterOrEqual" value="2.5"/>
												</Node>
											</Node>
											<Node score="0.10754499">
												<SimplePredicate field="f0" operator="greaterOrEqual" value="4.5"/>
												<Node score="-0.41469485">
													<SimplePredicate field="f0" operator="greaterOrEqual" value="13.5"/>
												</Node>
												<Node score="-0.35072044">
													<SimplePredicate field="f7" operator="greaterOrEqual" value="1.4181418E-21"/>
												</Node>
											</Node>
											<Node score="-0.1154662">
												<SimplePredicate field="f9" operator="greaterOrEqual" value="8.5"/>
											</Node>
											<Node score="-0.16565256">
												<SimplePredicate field="f3" operator="greaterOrEqual" value="4.245905E-12"/>
											</Node>
										</Node>
										<Node score="-0.41277143">
											<SimplePredicate field="f2" operator="greaterOrEqual" value="4.5"/>
											<Node score="-0.28376433">
												<SimplePredicate field="f4" operator="greaterOrEqual" value="5.5"/>
												<Node score="-0.37096846">
													<SimplePredicate field="f4" operator="greaterOrEqual" value="17.5"/>
													<Node score="-0.26341203">
														<SimplePredicate field="f4" operator="greaterOrEqual" value="83.5"/>
													</Node>
												</Node>
												<Node score="-0.35157838">
													<SimplePredicate field="f2" operator="greaterOrEqual" value="13.5"/>
												</Node>
											</Node>
											<Node score="-0.3959879">
												<SimplePredicate field="f7" operator="greaterOrEqual" value="2.283112E-13"/>
												<Node score="-0.33415812">
													<SimplePredicate field="f4" operator="greaterOrEqual" value="3.5"/>
												</Node>
											</Node>
											<Node score="-0.18349953">
												<SimplePredicate field="f0" operator="greaterOrEqual" value="8.5"/>
											</Node>
										</Node>
										<Node score="-0.42645505">
											<SimplePredicate field="f8" operator="greaterOrEqual" value="0.5"/>
											<Node score="-0.24882704">
												<SimplePredicate field="f6" operator="greaterOrEqual" value="7.5"/>
												<Node score="0.09544272">
													<SimplePredicate field="f4" operator="greaterOrEqual" value="8.5"/>
												</Node>
											</Node>
											<Node score="-0.40308967">
												<SimplePredicate field="f6" operator="greaterOrEqual" value="2.5"/>
											</Node>
										</Node>
									</Node>
									<Node score="0.38105795">
										<SimplePredicate field="f4" operator="greaterOrEqual" value="4.5"/>
										<Node score="0.2619261">
											<SimplePredicate field="f6" operator="greaterOrEqual" value="4.5"/>
											<Node score="-0.16199152">
												<SimplePredicate field="f8" operator="greaterOrEqual" value="0.5"/>
												<Node score="-0.08475463">
													<SimplePredicate field="f3" operator="greaterOrEqual" value="1.1263759E-12"/>
													<Node score="-0.00753222">
														<SimplePredicate field="f9" operator="greaterOrEqual" value="1.5"/>
													</Node>
												</Node>
												<Node score="-0.08087859">
													<SimplePredicate field="f6" operator="greaterOrEqual" value="6.5"/>
												</Node>
											</Node>
											<Node score="-0.35286883">
												<SimplePredicate field="f9" operator="greaterOrEqual" value="1.5"/>
												<Node score="-0.26620895">
													<SimplePredicate field="f1" operator="greaterOrEqual" value="1.3199023E-15"/>
												</Node>
											</Node>
											<Node score="0.44406497">
												<SimplePredicate field="f1" operator="greaterOrEqual" value="5.7864094E-15"/>
											</Node>
										</Node>
										<Node score="-0.27341327">
											<SimplePredicate field="f8" operator="greaterOrEqual" value="0.5"/>
											<Node score="-0.022923527">
												<SimplePredicate field="f9" operator="greaterOrEqual" value="1.5"/>
												<Node score="-0.18164614">
													<SimplePredicate field="f3" operator="greaterOrEqual" value="2.495546E-18"/>
												</Node>
											</Node>
											<Node score="0.2906385">
												<SimplePredicate field="f0" operator="greaterOrEqual" value="190.5"/>
											</Node>
										</Node>
										<Node score="-0.38363066">
											<SimplePredicate field="f9" operator="greaterOrEqual" value="1.5"/>
											<Node score="0.09485781">
												<SimplePredicate field="f0" operator="greaterOrEqual" value="132.0"/>
											</Node>
										</Node>
									</Node>
									<Node score="-0.27944452">
										<SimplePredicate field="f8" operator="greaterOrEqual" value="0.5"/>
										<Node score="-0.37886027">
											<SimplePredicate field="f9" operator="greaterOrEqual" value="1.5"/>
											<Node score="-0.19748025">
												<SimplePredicate field="f4" operator="greaterOrEqual" value="2.5"/>
												<Node score="-0.13725159">
													<SimplePredicate field="f5" operator="greaterOrEqual" value="2.018737E-15"/>
												</Node>
											</Node>
											<Node score="-0.217286">
												<SimplePredicate field="f1" operator="greaterOrEqual" value="6.1866425E-13"/>
											</Node>
										</Node>
										<Node score="-0.29403803">
											<SimplePredicate field="f4" operator="greaterOrEqual" value="2.5"/>
											<Node score="-0.20189203">
												<SimplePredicate field="f5" operator="greaterOrEqual" value="2.018737E-15"/>
											</Node>
										</Node>
										<Node score="-0.417404">
											<SimplePredicate field="f0" operator="greaterOrEqual" value="2.5"/>
										</Node>
									</Node>
									<Node score="-0.42985934">
										<SimplePredicate field="f9" operator="greaterOrEqual" value="1.5"/>
										<Node score="-0.3882824">
											<SimplePredicate field="f4" operator="greaterOrEqual" value="2.5"/>
											<Node score="-0.31173104">
												<SimplePredicate field="f0" operator="greaterOrEqual" value="4.5"/>
											</Node>
										</Node>
									</Node>
									<Node score="0.21423915">
										<SimplePredicate field="f5" operator="greaterOrEqual" value="6.2265807E-13"/>
										<Node score="0.009865164">
											<SimplePredicate field="f2" operator="greaterOrEqual" value="13.0"/>
										</Node>
									</Node>
								</Node>
							</TreeModel>
						</Segment>
						<Segment id="3">
							<True/>
							<TreeModel functionName="regression" missingValueStrategy="none" noTrueChildStrategy="returnLastPrediction" splitCharacteristic="multiSplit" x-mathContext="float">
								<MiningSchema>
									<MiningField name="f0"/>
									<MiningField name="f1"/>
									<MiningField name="f2"/>
									<MiningField name="f3"/>
									<MiningField name="f4"/>
									<MiningField name="f5"/>
									<MiningField name="f6"/>
									<MiningField name="f8"/>
									<MiningField name="f9"/>
								</MiningSchema>
								<Node score="0.2992655">
									<True/>
									<Node score="-0.38338432">
										<SimplePredicate field="f9" operator="greaterOrEqual" value="2.5"/>
										<Node score="-0.39953554">
											<SimplePredicate field="f9" operator="greaterOrEqual" value="3.5"/>
											<Node score="-0.17350672">
												<SimplePredicate field="f8" operator="greaterOrEqual" value="0.5"/>
												<Node score="-0.357511">
													<SimplePredicate field="f9" operator="greaterOrEqual" value="4.5"/>
													<Node score="-0.21502973">
														<SimplePredicate field="f2" operator="greaterOrEqual" value="3.5"/>
														<Node score="-0.29148686">
															<SimplePredicate field="f0" operator="greaterOrEqual" value="11.5"/>
														</Node>
													</Node>
													<Node score="-0.28420317">
														<SimplePredicate field="f3" operator="greaterOrEqual" value="4.770519E-16"/>
													</Node>
												</Node>
												<Node score="-0.10239302">
													<SimplePredicate field="f4" operator="greaterOrEqual" value="4.5"/>
													<Node score="-0.35913986">
														<SimplePredicate field="f2" operator="greaterOrEqual" value="78.5"/>
													</Node>
												</Node>
												<Node score="-0.26927325">
													<SimplePredicate field="f0" operator="greaterOrEqual" value="4.5"/>
												</Node>
											</Node>
											<Node score="-0.39197633">
												<SimplePredicate field="f2" operator="greaterOrEqual" value="4.5"/>
												<Node score="-0.27769458">
													<SimplePredicate field="f0" operator="greaterOrEqual" value="2.5"/>
													<Node score="-0.3270814">
														<SimplePredicate field="f2" operator="greaterOrEqual" value="16.5"/>
													</Node>
												</Node>
											</Node>
											<Node score="-0.37397745">
												<SimplePredicate field="f5" operator="greaterOrEqual" value="1.6725501E-18"/>
												<Node score="-0.34166864">
													<SimplePredicate field="f6" operator="greaterOrEqual" value="2.5"/>
												</Node>
											</Node>
										</Node>
										<Node score="-0.32442296">
											<SimplePredicate field="f2" operator="greaterOrEqual" value="4.5"/>
											<Node score="-0.27115616">
												<SimplePredicate field="f4" operator="greaterOrEqual" value="6.5"/>
												<Node score="-0.3907346">
													<SimplePredicate field="f4" operator="greaterOrEqual" value="17.5"/>
													<Node score="-0.2840675">
														<SimplePredicate field="f6" operator="greaterOrEqual" value="3.5"/>
													</Node>
												</Node>
												<Node score="-0.19512115">
													<SimplePredicate field="f1" operator="greaterOrEqual" value="4.770519E-16"/>
												</Node>
											</Node>
											<Node score="-0.3428731">
												<SimplePredicate field="f2" operator="greaterOrEqual" value="9.5"/>
												<Node score="-0.033447705">
													<SimplePredicate field="f3" operator="greaterOrEqual" value="4.9133926E-11"/>
												</Node>
											</Node>
											<Node score="-0.26730832">
												<SimplePredicate field="f1" operator="greaterOrEqual" value="6.1930837E-13"/>
											</Node>
										</Node>
										<Node score="-0.28671303">
											<SimplePredicate field="f8" operator="greaterOrEqual" value="0.5"/>
											<Node score="-0.300282">
												<SimplePredicate field="f6" operator="greaterOrEqual" value="6.5"/>
												<Node score="-0.18146203">
													<SimplePredicate field="f5" operator="greaterOrEqual" value="4.770519E-16"/>
												</Node>
											</Node>
											<Node score="-0.34545642">
												<SimplePredicate field="f3" operator="greaterOrEqual" value="1.4028582E-16"/>
											</Node>
										</Node>
									</Node>
									<Node score="0.17467359">
										<SimplePredicate field="f4" operator="greaterOrEqual" value="4.5"/>
										<Node score="-0.24431807">
											<SimplePredicate field="f6" operator="greaterOrEqual" value="4.5"/>
											<Node score="-0.31419158">
												<SimplePredicate field="f5" operator="greaterOrEqual" value="2.018737E-15"/>
												<Node score="-0.051819872">
													<SimplePredicate field="f3" operator="greaterOrEqual" value="2.0366402E-16"/>
													<Node score="0.020451628">
														<SimplePredicate field="f6" operator="greaterOrEqual" value="6.5"/>
													</Node>
												</Node>
												<Node score="-0.123577744">
													<SimplePredicate field="f6" operator="greaterOrEqual" value="5.5"/>
												</Node>
											</Node>
											<Node score="-0.26990536">
												<SimplePredicate field="f1" operator="greaterOrEqual" value="2.7073431E-18"/>
												<Node score="-0.105293356">
													<SimplePredicate field="f5" operator="greaterOrEqual" value="2.3948753E-16"/>
												</Node>
											</Node>
											<Node score="0.058969922">
												<SimplePredicate field="f1" operator="greaterOrEqual" value="5.995813E-20"/>
											</Node>
										</Node>
										<Node score="-0.15708534">
											<SimplePredicate field="f6" operator="greaterOrEqual" value="2.5"/>
											<Node score="0.749422">
												<SimplePredicate field="f5" operator="greaterOrEqual" value="1.4706333E-15"/>
												<Node score="-0.11118232">
													<SimplePredicate field="f5" operator="greaterOrEqual" value="6.2048234E-13"/>
												</Node>
											</Node>
											<Node score="-0.29916865">
												<SimplePredicate field="f3" operator="greaterOrEqual" value="7.7179853E-16"/>
											</Node>
										</Node>
										<Node score="-0.31404477">
											<SimplePredicate field="f3" operator="greaterOrEqual" value="6.1866425E-13"/>
											<Node score="-0.18760653">
												<SimplePredicate field="f8" operator="greaterOrEqual" value="0.5"/>
											</Node>
										</Node>
										<Node score="-0.39427796">
											<SimplePredicate field="f5" operator="greaterOrEqual" value="4.5569236E-22"/>
										</Node>
									</Node>
									<Node score="-0.21296406">
										<SimplePredicate field="f8" operator="greaterOrEqual" value="0.5"/>
										<Node score="-0.3189453">
											<SimplePredicate field="f9" operator="greaterOrEqual" value="1.5"/>
											<Node score="-0.19057615">
												<SimplePredicate field="f4" operator="greaterOrEqual" value="2.5"/>
												<Node score="-0.10783803">
													<SimplePredicate field="f2" operator="greaterOrEqual" value="2.5"/>
												</Node>
											</Node>
											<Node score="-0.16053951">
												<SimplePredicate field="f1" operator="greaterOrEqual" value="4.770519E-16"/>
											</Node>
										</Node>
										<Node score="-0.16817966">
											<SimplePredicate field="f4" operator="greaterOrEqual" value="2.5"/>
											<Node score="-0.3257537">
												<SimplePredicate field="f0" operator="greaterOrEqual" value="4.5"/>
											</Node>
										</Node>
										<Node score="-0.3492464">
											<SimplePredicate field="f0" operator="greaterOrEqual" value="2.5"/>
										</Node>
									</Node>
									<Node score="-0.36308756">
										<SimplePredicate field="f9" operator="greaterOrEqual" value="1.5"/>
										<Node score="-0.32305068">
											<SimplePredicate field="f4" operator="greaterOrEqual" value="2.5"/>
											<Node score="-0.2566827">
												<SimplePredicate field="f2" operator="greaterOrEqual" value="4.5"/>
											</Node>
										</Node>
									</Node>
									<Node score="0.16028492">
										<SimplePredicate field="f5" operator="greaterOrEqual" value="6.2265807E-13"/>
										<Node score="0.0074265557">
											<SimplePredicate field="f2" operator="greaterOrEqual" value="13.0"/>
										</Node>
									</Node>
								</Node>
							</TreeModel>
						</Segment>
						<Segment id="4">
							<True/>
							<TreeModel functionName="regression" missingValueStrategy="none" noTrueChildStrategy="returnLastPrediction" splitCharacteristic="multiSplit" x-mathContext="float">
								<MiningSchema>
									<MiningField name="f0"/>
									<MiningField name="f1"/>
									<MiningField name="f2"/>
									<MiningField name="f3"/>
									<MiningField name="f4"/>
									<MiningField name="f5"/>
									<MiningField name="f6"/>
									<MiningField name="f7"/>
									<MiningField name="f8"/>
									<MiningField name="f9"/>
								</MiningSchema>
								<Node score="0.25317565">
									<True/>
									<Node score="-0.3446701">
										<SimplePredicate field="f9" operator="greaterOrEqual" value="2.5"/>
										<Node score="-0.36030847">
											<SimplePredicate field="f9" operator="greaterOrEqual" value="3.5"/>
											<Node score="-0.17874059">
												<SimplePredicate field="f8" operator="greaterOrEqual" value="0.5"/>
												<Node score="-0.29061675">
													<SimplePredicate field="f9" operator="greaterOrEqual" value="4.5"/>
													<Node score="-0.12506332">
														<SimplePredicate field="f9" operator="greaterOrEqual" value="5.5"/>
														<Node score="-0.24468122">
															<SimplePredicate field="f0" operator="greaterOrEqual" value="11.5"/>
														</Node>
													</Node>
													<Node score="-0.2220165">
														<SimplePredicate field="f2" operator="greaterOrEqual" value="3.5"/>
													</Node>
												</Node>
												<Node score="-0.0099493135">
													<SimplePredicate field="f6" operator="greaterOrEqual" value="6.5"/>
													<Node score="-0.13741659">
														<SimplePredicate field="f2" operator="greaterOrEqual" value="16.5"/>
													</Node>
												</Node>
												<Node score="-0.11290204">
													<SimplePredicate field="f1" operator="greaterOrEqual" value="3.8689559E-16"/>
												</Node>
											</Node>
											<Node score="-0.353639">
												<SimplePredicate field="f2" operator="greaterOrEqual" value="4.5"/>
												<Node score="-0.32335988">
													<SimplePredicate field="f0" operator="greaterOrEqual" value="2.5"/>
													<Node score="-0.2337371">
														<SimplePredicate field="f5" operator="greaterOrEqual" value="1.6725501E-18"/>
													</Node>
												</Node>
											</Node>
											<Node score="-0.33118308">
												<SimplePredicate field="f5" operator="greaterOrEqual" value="1.6725501E-18"/>
												<Node score="-0.29587197">
													<SimplePredicate field="f6" operator="greaterOrEqual" value="2.5"/>
												</Node>
											</Node>
										</Node>
										<Node score="-0.16711064">
											<SimplePredicate field="f2" operator="greaterOrEqual" value="4.5"/>
											<Node score="-0.1361005">
												<SimplePredicate field="f4" operator="greaterOrEqual" value="4.5"/>
												<Node score="-0.17461668">
													<SimplePredicate field="f5" operator="greaterOrEqual" value="3.8689559E-16"/>
													<Node score="-0.24204893">
														<SimplePredicate field="f2" operator="greaterOrEqual" value="14.5"/>
													</Node>
												</Node>
												<Node score="-0.27340025">
													<SimplePredicate field="f7" operator="greaterOrEqual" value="2.2073268E-19"/>
												</Node>
											</Node>
											<Node score="-0.1606255">
												<SimplePredicate field="f2" operator="greaterOrEqual" value="8.5"/>
												<Node score="-0.30539382">
													<SimplePredicate field="f1" operator="greaterOrEqual" value="1.993937E-18"/>
												</Node>
											</Node>
											<Node score="-0.27228576">
												<SimplePredicate field="f8" operator="greaterOrEqual" value="0.5"/>
											</Node>
										</Node>
										<Node score="-0.35297295">
											<SimplePredicate field="f8" operator="greaterOrEqual" value="0.5"/>
											<Node score="-0.312093">
												<SimplePredicate field="f6" operator="greaterOrEqual" value="2.5"/>
												<Node score="-0.26357004">
													<SimplePredicate field="f5" operator="greaterOrEqual" value="3.1380305E-15"/>
												</Node>
											</Node>
											<Node score="-0.30665526">
												<SimplePredicate field="f1" operator="greaterOrEqual" value="6.231307E-13"/>
											</Node>
										</Node>
										<Node score="-0.2566812">
											<SimplePredicate field="f6" operator="greaterOrEqual" value="6.5"/>
											<Node score="-0.053793605">
												<SimplePredicate field="f5" operator="greaterOrEqual" value="4.770519E-16"/>
											</Node>
										</Node>
									</Node>
									<Node score="0.6676992">
										<SimplePredicate field="f4" operator="greaterOrEqual" value="4.5"/>
										<Node score="0.3670382">
											<SimplePredicate field="f0" operator="greaterOrEqual" value="14.5"/>
											<Node score="-0.12062353">
												<SimplePredicate field="f8" operator="greaterOrEqual" value="0.5"/>
												<Node score="-0.12515981">
													<SimplePredicate field="f9" operator="greaterOrEqual" value="1.5"/>
													<Node score="-0.059770342">
														<SimplePredicate field="f6" operator="greaterOrEqual" value="2.5"/>
													</Node>
												</Node>
												<Node score="-0.18239534">
													<SimplePredicate field="f2" operator="greaterOrEqual" value="9.5"/>
												</Node>
											</Node>
											<Node score="-0.29188594">
												<SimplePredicate field="f9" operator="greaterOrEqual" value="1.5"/>
												<Node score="0.033188283">
													<SimplePredicate field="f0" operator="greaterOrEqual" value="136.0"/>
												</Node>
											</Node>
										</Node>
										<Node score="0.045384828">
											<SimplePredicate field="f4" operator="greaterOrEqual" value="6.5"/>
											<Node score="0.14663275">
												<SimplePredicate field="f6" operator="greaterOrEqual" value="6.5"/>
												<Node score="0.024210503">
													<SimplePredicate field="f0" operator="greaterOrEqual" value="5.5"/>
												</Node>
											</Node>
											<Node score="-0.11449983">
												<SimplePredicate field="f3" operator="greaterOrEqual" value="2.495546E-18"/>
											</Node>
										</Node>
										<Node score="-0.13146044">
											<SimplePredicate field="f5" operator="greaterOrEqual" value="8.727723E-22"/>
											<Node score="-0.04575392">
												<SimplePredicate field="f5" operator="greaterOrEqual" value="2.018737E-15"/>
											</Node>
										</Node>
										<Node score="-0.12195921">
											<SimplePredicate field="f0" operator="greaterOrEqual" value="4.5"/>
										</Node>
									</Node>
									<Node score="-0.34257296">
										<SimplePredicate field="f8" operator="greaterOrEqual" value="0.5"/>
										<Node score="0.08375017">
											<SimplePredicate field="f9" operator="greaterOrEqual" value="1.5"/>
											<Node score="-0.14561865">
												<SimplePredicate field="f1" operator="greaterOrEqual" value="2.7073431E-18"/>
												<Node score="-0.09285694">
													<SimplePredicate field="f5" operator="greaterOrEqual" value="5.8561015E-16"/>
												</Node>
											</Node>
											<Node score="-0.23150739">
												<SimplePredicate field="f5" operator="greaterOrEqual" value="1.4028582E-16"/>
											</Node>
										</Node>
										<Node score="-0.18678631">
											<SimplePredicate field="f4" operator="greaterOrEqual" value="2.5"/>
											<Node score="-0.09938004">
												<SimplePredicate field="f5" operator="greaterOrEqual" value="2.018737E-15"/>
											</Node>
										</Node>
										<Node score="-0.16829726">
											<SimplePredicate field="f1" operator="greaterOrEqual" value="6.1866425E-13"/>
										</Node>
									</Node>
									<Node score="-0.29612955">
										<SimplePredicate field="f9" operator="greaterOrEqual" value="1.5"/>
										<Node score="-0.27299345">
											<SimplePredicate field="f4" operator="greaterOrEqual" value="2.5"/>
											<Node score="-0.20511642">
												<SimplePredicate field="f2" operator="greaterOrEqual" value="4.5"/>
											</Node>
										</Node>
										<Node score="-0.32624584">
											<SimplePredicate field="f3" operator="greaterOrEqual" value="1.648813E-15"/>
										</Node>
									</Node>
									<Node score="0.16334638">
										<SimplePredicate field="f5" operator="greaterOrEqual" value="6.2265807E-13"/>
										<Node score="0.05051877">
											<SimplePredicate field="f6" operator="greaterOrEqual" value="1.5"/>
										</Node>
									</Node>
								</Node>
							</TreeModel>
						</Segment>
						<Segment id="5">
							<True/>
							<TreeModel functionName="regression" missingValueStrategy="none" noTrueChildStrategy="returnLastPrediction" splitCharacteristic="multiSplit" x-mathContext="float">
								<MiningSchema>
									<MiningField name="f0"/>
									<MiningField name="f1"/>
									<MiningField name="f2"/>
									<MiningField name="f3"/>
									<MiningField name="f4"/>
									<MiningField name="f5"/>
									<MiningField name="f6"/>
									<MiningField name="f7"/>
									<MiningField name="f8"/>
									<MiningField name="f9"/>
								</MiningSchema>
								<Node score="0.05881118">
									<True/>
									<Node score="-0.14565259">
										<SimplePredicate field="f8" operator="greaterOrEqual" value="0.5"/>
										<Node score="-0.31678385">
											<SimplePredicate field="f9" operator="greaterOrEqual" value="2.5"/>
											<Node score="-0.097276285">
												<SimplePredicate field="f9" operator="greaterOrEqual" value="3.5"/>
												<Node score="-0.22872029">
													<SimplePredicate field="f9" operator="greaterOrEqual" value="4.5"/>
													<Node score="-0.21054015">
														<SimplePredicate field="f2" operator="greaterOrEqual" value="2.5"/>
														<Node score="-0.11912326">
															<SimplePredicate field="f1" operator="greaterOrEqual" value="1.3199023E-15"/>
														</Node>
													</Node>
													<Node score="-0.34684297">
														<SimplePredicate field="f4" operator="greaterOrEqual" value="9.5"/>
													</Node>
												</Node>
												<Node score="-0.15568005">
													<SimplePredicate field="f6" operator="greaterOrEqual" value="4.5"/>
													<Node score="-0.037687078">
														<SimplePredicate field="f2" operator="greaterOrEqual" value="4.5"/>
													</Node>
												</Node>
												<Node score="-0.19824244">
													<SimplePredicate field="f2" operator="greaterOrEqual" value="4.5"/>
												</Node>
											</Node>
											<Node score="0.17592867">
												<SimplePredicate field="f6" operator="greaterOrEqual" value="4.5"/>
												<Node score="-0.21877882">
													<SimplePredicate field="f4" operator="greaterOrEqual" value="6.5"/>
													<Node score="-0.12898403">
														<SimplePredicate field="f6" operator="greaterOrEqual" value="6.5"/>
													</Node>
												</Node>
												<Node score="-0.21883067">
													<SimplePredicate field="f5" operator="greaterOrEqual" value="5.6101496E-20"/>
												</Node>
											</Node>
											<Node score="-0.27886316">
												<SimplePredicate field="f6" operator="greaterOrEqual" value="2.5"/>
												<Node score="-0.22668384">
													<SimplePredicate field="f5" operator="greaterOrEqual" value="3.1380305E-15"/>
												</Node>
											</Node>
											<Node score="-0.27192438">
												<SimplePredicate field="f1" operator="greaterOrEqual" value="6.231307E-13"/>
											</Node>
										</Node>
										<Node score="-0.17811038">
											<SimplePredicate field="f4" operator="greaterOrEqual" value="4.5"/>
											<Node score="-0.096469305">
												<SimplePredicate field="f9" operator="greaterOrEqual" value="1.5"/>
												<Node score="0.06614371">
													<SimplePredicate field="f2" operator="greaterOrEqual" value="5.5"/>
													<Node score="-0.032997668">
														<SimplePredicate field="f2" operator="greaterOrEqual" value="12.5"/>
													</Node>
												</Node>
												<Node score="-0.02486367">
													<SimplePredicate field="f5" operator="greaterOrEqual" value="6.73326E-16"/>
												</Node>
											</Node>
											<Node score="0.2544551">
												<SimplePredicate field="f0" operator="greaterOrEqual" value="3.5"/>
												<Node score="-0.0834335">
													<SimplePredicate field="f7" operator="greaterOrEqual" value="8.727723E-22"/>
												</Node>
											</Node>
											<Node score="0.13166635">
												<SimplePredicate field="f5" operator="greaterOrEqual" value="4.770519E-16"/>
											</Node>
										</Node>
										<Node score="-0.2378408">
											<SimplePredicate field="f9" operator="greaterOrEqual" value="1.5"/>
											<Node score="-0.083969414">
												<SimplePredicate field="f4" operator="greaterOrEqual" value="2.5"/>
												<Node score="-0.037117366">
													<SimplePredicate field="f5" operator="greaterOrEqual" value="2.018737E-15"/>
												</Node>
											</Node>
											<Node score="-0.094234884">
												<SimplePredicate field="f1" operator="greaterOrEqual" value="6.1866425E-13"/>
											</Node>
										</Node>
										<Node score="-0.1358329">
											<SimplePredicate field="f0" operator="greaterOrEqual" value="4.5"/>
											<Node score="-0.26992035">
												<SimplePredicate field="f5" operator="greaterOrEqual" value="1.4470246E-15"/>
											</Node>
										</Node>
										<Node score="-0.090593696">
											<SimplePredicate field="f4" operator="greaterOrEqual" value="2.5"/>
										</Node>
									</Node>
									<Node score="-0.043098707">
										<SimplePredicate field="f9" operator="greaterOrEqual" value="1.5"/>
										<Node score="-0.1854698">
											<SimplePredicate field="f2" operator="greaterOrEqual" value="4.5"/>
											<Node score="0.017919553">
												<SimplePredicate field="f6" operator="greaterOrEqual" value="9.5"/>
												<Node score="-0.15067369">
													<SimplePredicate field="f0" operator="greaterOrEqual" value="4.5"/>
													<Node score="-0.25331342">
														<SimplePredicate field="f0" operator="greaterOrEqual" value="11.5"/>
													</Node>
												</Node>
												<Node score="-0.27771065">
													<SimplePredicate field="f1" operator="greaterOrEqual" value="1.4131441E-16"/>
												</Node>
											</Node>
											<Node score="-0.15539217">
												<SimplePredicate field="f1" operator="greaterOrEqual" value="1.3199023E-15"/>
												<Node score="-0.07738251">
													<SimplePredicate field="f4" operator="greaterOrEqual" value="6.5"/>
												</Node>
											</Node>
											<Node score="-0.32166773">
												<SimplePredicate field="f3" operator="greaterOrEqual" value="2.0546736E-14"/>
											</Node>
										</Node>
										<Node score="-0.2902411">
											<SimplePredicate field="f9" operator="greaterOrEqual" value="2.5"/>
											<Node score="-0.07198175">
												<SimplePredicate field="f2" operator="greaterOrEqual" value="3.5"/>
												<Node score="-0.32503346">
													<SimplePredicate field="f0" operator="greaterOrEqual" value="2.5"/>
												</Node>
											</Node>
											<Node score="-0.08110483">
												<SimplePredicate field="f6" operator="greaterOrEqual" value="5.5"/>
											</Node>
										</Node>
										<Node score="-0.28706303">
											<SimplePredicate field="f1" operator="greaterOrEqual" value="1.4433268E-16"/>
											<Node score="-0.24678275">
												<SimplePredicate field="f2" operator="greaterOrEqual" value="1.5"/>
											</Node>
										</Node>
										<Node score="-0.20404233">
											<SimplePredicate field="f4" operator="greaterOrEqual" value="5.5"/>
										</Node>
									</Node>
									<Node score="0.3390596">
										<SimplePredicate field="f0" operator="greaterOrEqual" value="4.5"/>
										<Node score="0.36356926">
											<SimplePredicate field="f1" operator="greaterOrEqual" value="4.770519E-16"/>
										</Node>
										<Node score="0.19776194">
											<SimplePredicate field="f0" operator="greaterOrEqual" value="9.5"/>
											<Node score="-0.15117854">
												<SimplePredicate field="f1" operator="greaterOrEqual" value="1.4028582E-16"/>
											</Node>
										</Node>
									</Node>
									<Node score="0.07562973">
										<SimplePredicate field="f5" operator="greaterOrEqual" value="6.2265807E-13"/>
										<Node score="-0.04053513">
											<SimplePredicate field="f6" operator="greaterOrEqual" value="1.5"/>
											<Node score="0.08651079">
												<SimplePredicate field="f0" operator="greaterOrEqual" value="2.5"/>
											</Node>
										</Node>
										<Node score="0.25693044">
											<SimplePredicate field="f0" operator="greaterOrEqual" value="1.5"/>
										</Node>
									</Node>
									<Node score="0.2310339">
										<SimplePredicate field="f1" operator="greaterOrEqual" value="1.1211878E-15"/>
									</Node>
								</Node>
							</TreeModel>
						</Segment>
						<Segment id="6">
							<True/>
							<TreeModel functionName="regression" missingValueStrategy="none" noTrueChildStrategy="returnLastPrediction" splitCharacteristic="multiSplit" x-mathContext="float">
								<MiningSchema>
									<MiningField name="f0"/>
									<MiningField name="f1"/>
									<MiningField name="f2"/>
									<MiningField name="f3"/>
									<MiningField name="f4"/>
									<MiningField name="f5"/>
									<MiningField name="f6"/>
									<MiningField name="f7"/>
									<MiningField name="f8"/>
									<MiningField name="f9"/>
								</MiningSchema>
								<Node score="0.0505491">
									<True/>
									<Node score="-0.14390753">
										<SimplePredicate field="f8" operator="greaterOrEqual" value="0.5"/>
										<Node score="-0.19160338">
											<SimplePredicate field="f9" operator="greaterOrEqual" value="2.5"/>
											<Node score="-0.07303282">
												<SimplePredicate field="f9" operator="greaterOrEqual" value="3.5"/>
												<Node score="-0.22316858">
													<SimplePredicate field="f9" operator="greaterOrEqual" value="4.5"/>
													<Node score="-0.073412105">
														<SimplePredicate field="f9" operator="greaterOrEqual" value="5.5"/>
														<Node score="-0.31829655">
															<SimplePredicate field="f4" operator="greaterOrEqual" value="85.5"/>
														</Node>
													</Node>
													<Node score="-0.14774805">
														<SimplePredicate field="f6" operator="greaterOrEqual" value="3.5"/>
													</Node>
												</Node>
												<Node score="-0.17530936">
													<SimplePredicate field="f4" operator="greaterOrEqual" value="2.5"/>
													<Node score="-0.035182722">
														<SimplePredicate field="f2" operator="greaterOrEqual" value="2.5"/>
													</Node>
												</Node>
												<Node score="-0.25778285">
													<SimplePredicate field="f0" operator="greaterOrEqual" value="2.5"/>
												</Node>
											</Node>
											<Node score="-0.21002826">
												<SimplePredicate field="f6" operator="greaterOrEqual" value="4.5"/>
												<Node score="-0.087885216">
													<SimplePredicate field="f4" operator="greaterOrEqual" value="6.5"/>
													<Node score="-0.16783689">
														<SimplePredicate field="f2" operator="greaterOrEqual" value="13.5"/>
													</Node>
												</Node>
												<Node score="-0.150929">
													<SimplePredicate field="f0" operator="greaterOrEqual" value="4.5"/>
												</Node>
											</Node>
											<Node score="-0.26609272">
												<SimplePredicate field="f7" operator="greaterOrEqual" value="1.4028582E-16"/>
												<Node score="-0.21707802">
													<SimplePredicate field="f5" operator="greaterOrEqual" value="3.1380305E-15"/>
												</Node>
											</Node>
											<Node score="0.062248353">
												<SimplePredicate field="f7" operator="greaterOrEqual" value="1.993937E-18"/>
											</Node>
										</Node>
										<Node score="0.046251114">
											<SimplePredicate field="f6" operator="greaterOrEqual" value="3.5"/>
											<Node score="-0.1429626">
												<SimplePredicate field="f2" operator="greaterOrEqual" value="15.5"/>
												<Node score="-0.024940977">
													<SimplePredicate field="f9" operator="greaterOrEqual" value="1.5"/>
													<Node score="-0.09050253">
														<SimplePredicate field="f0" operator="greaterOrEqual" value="20.5"/>
													</Node>
												</Node>
												<Node score="-0.07278262">
													<SimplePredicate field="f6" operator="greaterOrEqual" value="48.5"/>
												</Node>
											</Node>
											<Node score="0.13848011">
												<SimplePredicate field="f6" operator="greaterOrEqual" value="6.5"/>
												<Node score="0.006676575">
													<SimplePredicate field="f2" operator="greaterOrEqual" value="5.5"/>
												</Node>
											</Node>
											<Node score="-0.042073697">
												<SimplePredicate field="f1" operator="greaterOrEqual" value="8.681783E-18"/>
											</Node>
										</Node>
										<Node score="-0.049872342">
											<SimplePredicate field="f9" operator="greaterOrEqual" value="1.5"/>
											<Node score="0.03970791">
												<SimplePredicate field="f2" operator="greaterOrEqual" value="4.5"/>
												<Node score="-0.38552818">
													<SimplePredicate field="f2" operator="greaterOrEqual" value="5.5"/>
												</Node>
											</Node>
											<Node score="-0.20532759">
												<SimplePredicate field="f2" operator="greaterOrEqual" value="3.5"/>
											</Node>
										</Node>
										<Node score="-0.016698059">
											<SimplePredicate field="f2" operator="greaterOrEqual" value="3.5"/>
											<Node score="-0.22994691">
												<SimplePredicate field="f1" operator="greaterOrEqual" value="8.312467E-19"/>
											</Node>
										</Node>
										<Node score="-0.07441675">
											<SimplePredicate field="f5" operator="greaterOrEqual" value="6.5445984E-15"/>
										</Node>
									</Node>
									<Node score="0.004308362">
										<SimplePredicate field="f9" operator="greaterOrEqual" value="1.5"/>
										<Node score="-0.27127442">
											<SimplePredicate field="f2" operator="greaterOrEqual" value="4.5"/>
											<Node score="-0.15089586">
												<SimplePredicate field="f0" operator="greaterOrEqual" value="4.5"/>
												<Node score="-0.21102312">
													<SimplePredicate field="f4" operator="greaterOrEqual" value="15.5"/>
													<Node score="0.2576631">
														<SimplePredicate field="f2" operator="greaterOrEqual" value="137.0"/>
													</Node>
												</Node>
												<Node score="-0.08303916">
													<SimplePredicate field="f1" operator="greaterOrEqual" value="1.3199023E-15"/>
												</Node>
											</Node>
											<Node score="-0.2961966">
												<SimplePredicate field="f6" operator="greaterOrEqual" value="6.5"/>
												<Node score="-0.22003333">
													<SimplePredicate field="f3" operator="greaterOrEqual" value="3.4640996E-18"/>
												</Node>
											</Node>
											<Node score="-0.041804384">
												<SimplePredicate field="f1" operator="greaterOrEqual" value="4.770519E-16"/>
											</Node>
										</Node>
										<Node score="-0.26125792">
											<SimplePredicate field="f9" operator="greaterOrEqual" value="2.5"/>
											<Node score="-0.30260196">
												<SimplePredicate field="f2" operator="greaterOrEqual" value="3.5"/>
												<Node score="-0.04954613">
													<SimplePredicate field="f9" operator="greaterOrEqual" value="6.5"/>
												</Node>
											</Node>
											<Node score="-0.062014475">
												<SimplePredicate field="f6" operator="greaterOrEqual" value="5.5"/>
											</Node>
										</Node>
										<Node score="0.41573405">
											<SimplePredicate field="f6" operator="greaterOrEqual" value="2.5"/>
											<Node score="-0.19867913">
												<SimplePredicate field="f1" operator="greaterOrEqual" value="6.030667E-20"/>
											</Node>
										</Node>
										<Node score="-0.25311664">
											<SimplePredicate field="f5" operator="greaterOrEqual" value="6.31011E-23"/>
										</Node>
									</Node>
									<Node score="0.31008345">
										<SimplePredicate field="f0" operator="greaterOrEqual" value="4.5"/>
										<Node score="0.33488238">
											<SimplePredicate field="f1" operator="greaterOrEqual" value="5.7864094E-15"/>
										</Node>
										<Node score="0.013424994">
											<SimplePredicate field="f1" operator="greaterOrEqual" value="1.3199023E-15"/>
										</Node>
										<Node score="0.08785819">
											<SimplePredicate field="f0" operator="greaterOrEqual" value="9.5"/>
										</Node>
									</Node>
									<Node score="0.05736755">
										<SimplePredicate field="f5" operator="greaterOrEqual" value="6.2265807E-13"/>
										<Node score="-0.029747268">
											<SimplePredicate field="f6" operator="greaterOrEqual" value="1.5"/>
											<Node score="0.065262154">
												<SimplePredicate field="f0" operator="greaterOrEqual" value="2.5"/>
											</Node>
										</Node>
										<Node score="0.22810817">
											<SimplePredicate field="f0" operator="greaterOrEqual" value="1.5"/>
										</Node>
									</Node>
									<Node score="0.20154776">
										<SimplePredicate field="f1" operator="greaterOrEqual" value="1.1211878E-15"/>
									</Node>
								</Node>
							</TreeModel>
						</Segment>
						<Segment id="7">
							<True/>
							<TreeModel functionName="regression" missingValueStrategy="none" noTrueChildStrategy="returnLastPrediction" splitCharacteristic="multiSplit" x-mathContext="float">
								<MiningSchema>
									<MiningField name="f0"/>
									<MiningField name="f1"/>
									<MiningField name="f2"/>
									<MiningField name="f3"/>
									<MiningField name="f4"/>
									<MiningField name="f5"/>
									<MiningField name="f6"/>
									<MiningField name="f7"/>
									<MiningField name="f8"/>
									<MiningField name="f9"/>
								</MiningSchema>
								<Node score="0.04930999">
									<True/>
									<Node score="-0.19741748">
										<SimplePredicate field="f8" operator="greaterOrEqual" value="0.5"/>
										<Node score="-0.2875554">
											<SimplePredicate field="f9" operator="greaterOrEqual" value="2.5"/>
											<Node score="-0.021884361">
												<SimplePredicate field="f9" operator="greaterOrEqual" value="3.5"/>
												<Node score="-0.1344547">
													<SimplePredicate field="f9" operator="greaterOrEqual" value="4.5"/>
													<Node score="-0.30134106">
														<SimplePredicate field="f0" operator="greaterOrEqual" value="85.5"/>
														<Node score="-0.04783452">
															<SimplePredicate field="f2" operator="greaterOrEqual" value="5.5"/>
														</Node>
													</Node>
													<Node score="-0.054256402">
														<SimplePredicate field="f9" operator="greaterOrEqual" value="5.5"/>
													</Node>
												</Node>
												<Node score="-0.17321499">
													<SimplePredicate field="f1" operator="greaterOrEqual" value="3.8689559E-16"/>
													<Node score="-0.002145538">
														<SimplePredicate field="f5" operator="greaterOrEqual" value="3.8689559E-16"/>
													</Node>
												</Node>
												<Node score="-0.21630464">
													<SimplePredicate field="f5" operator="greaterOrEqual" value="2.4938945E-15"/>
												</Node>
											</Node>
											<Node score="-0.17325771">
												<SimplePredicate field="f6" operator="greaterOrEqual" value="4.5"/>
												<Node score="-0.14333275">
													<SimplePredicate field="f0" operator="greaterOrEqual" value="4.5"/>
													<Node score="-0.072877355">
														<SimplePredicate field="f5" operator="greaterOrEqual" value="3.1380305E-15"/>
													</Node>
												</Node>
												<Node score="0.068242386">
													<SimplePredicate field="f6" operator="greaterOrEqual" value="96.5"/>
												</Node>
											</Node>
											<Node score="-0.23637661">
												<SimplePredicate field="f2" operator="greaterOrEqual" value="2.5"/>
												<Node score="-0.16436148">
													<SimplePredicate field="f6" operator="greaterOrEqual" value="2.5"/>
												</Node>
											</Node>
											<Node score="-0.20552734">
												<SimplePredicate field="f5" operator="greaterOrEqual" value="3.1380305E-15"/>
											</Node>
										</Node>
										<Node score="0.07945108">
											<SimplePredicate field="f6" operator="greaterOrEqual" value="2.5"/>
											<Node score="-0.123177715">
												<SimplePredicate field="f5" operator="greaterOrEqual" value="6.73326E-16"/>
												<Node score="-0.013995876">
													<SimplePredicate field="f3" operator="greaterOrEqual" value="1.966545E-16"/>
													<Node score="0.024194399">
														<SimplePredicate field="f4" operator="greaterOrEqual" value="6.5"/>
													</Node>
												</Node>
												<Node score="-0.038643118">
													<SimplePredicate field="f6" operator="greaterOrEqual" value="10.5"/>
												</Node>
											</Node>
											<Node score="-0.28834978">
												<SimplePredicate field="f1" operator="greaterOrEqual" value="2.7073431E-18"/>
												<Node score="-0.07251166">
													<SimplePredicate field="f2" operator="greaterOrEqual" value="2.5"/>
												</Node>
											</Node>
											<Node score="-0.13825274">
												<SimplePredicate field="f5" operator="greaterOrEqual" value="1.4028582E-16"/>
											</Node>
										</Node>
										<Node score="-0.044599455">
											<SimplePredicate field="f3" operator="greaterOrEqual" value="6.1866425E-13"/>
											<Node score="-0.18436599">
												<SimplePredicate field="f4" operator="greaterOrEqual" value="1.5"/>
												<Node score="-0.061905064">
													<SimplePredicate field="f0" operator="greaterOrEqual" value="1.5"/>
												</Node>
											</Node>
											<Node score="-0.34359127">
												<SimplePredicate field="f2" operator="greaterOrEqual" value="4.5"/>
											</Node>
										</Node>
										<Node score="-0.2924465">
											<SimplePredicate field="f1" operator="greaterOrEqual" value="1.4028582E-16"/>
											<Node score="-0.362505">
												<SimplePredicate field="f0" operator="greaterOrEqual" value="4.5"/>
											</Node>
										</Node>
										<Node score="-0.050443973">
											<SimplePredicate field="f9" operator="greaterOrEqual" value="1.5"/>
										</Node>
									</Node>
									<Node score="-0.17858168">
										<SimplePredicate field="f9" operator="greaterOrEqual" value="1.5"/>
										<Node score="-0.027356295">
											<SimplePredicate field="f2" operator="greaterOrEqual" value="4.5"/>
											<Node score="-0.10698495">
												<SimplePredicate field="f0" operator="greaterOrEqual" value="4.5"/>
												<Node score="-0.19508691">
													<SimplePredicate field="f4" operator="greaterOrEqual" value="15.5"/>
													<Node score="-0.07631612">
														<SimplePredicate field="f0" operator="greaterOrEqual" value="52.5"/>
													</Node>
												</Node>
												<Node score="-0.03447966">
													<SimplePredicate field="f4" operator="greaterOrEqual" value="6.5"/>
												</Node>
											</Node>
											<Node score="-0.2322175">
												<SimplePredicate field="f1" operator="greaterOrEqual" value="1.3199023E-15"/>
												<Node score="-0.11982971">
													<SimplePredicate field="f0" operator="greaterOrEqual" value="2.5"/>
												</Node>
											</Node>
											<Node score="-0.297272">
												<SimplePredicate field="f5" operator="greaterOrEqual" value="1.4131441E-16"/>
											</Node>
										</Node>
										<Node score="-0.23223366">
											<SimplePredicate field="f9" operator="greaterOrEqual" value="2.5"/>
											<Node score="-0.18133503">
												<SimplePredicate field="f2" operator="greaterOrEqual" value="3.5"/>
												<Node score="-0.28636807">
													<SimplePredicate field="f3" operator="greaterOrEqual" value="1.993937E-18"/>
												</Node>
											</Node>
											<Node score="0.02000815">
												<SimplePredicate field="f6" operator="greaterOrEqual" value="6.5"/>
											</Node>
										</Node>
										<Node score="-0.14561436">
											<SimplePredicate field="f4" operator="greaterOrEqual" value="2.5"/>
											<Node score="-0.23176964">
												<SimplePredicate field="f2" operator="greaterOrEqual" value="3.5"/>
											</Node>
										</Node>
										<Node score="-0.24007243">
											<SimplePredicate field="f3" operator="greaterOrEqual" value="5.914876E-15"/>
										</Node>
									</Node>
									<Node score="0.07212216">
										<SimplePredicate field="f0" operator="greaterOrEqual" value="4.5"/>
										<Node score="0.30543518">
											<SimplePredicate field="f1" operator="greaterOrEqual" value="5.7864094E-15"/>
										</Node>
										<Node score="0.23621565">
											<SimplePredicate field="f3" operator="greaterOrEqual" value="1.9729267E-15"/>
											<Node score="-0.050480325">
												<SimplePredicate field="f2" operator="greaterOrEqual" value="3.5"/>
											</Node>
										</Node>
										<Node score="0.30105284">
											<SimplePredicate field="f2" operator="greaterOrEqual" value="7.5"/>
										</Node>
									</Node>
									<Node score="0.2292768">
										<SimplePredicate field="f3" operator="greaterOrEqual" value="1.4028582E-16"/>
										<Node score="0.09726142">
											<SimplePredicate field="f7" operator="greaterOrEqual" value="6.1899314E-13"/>
											<Node score="0.0017095761">
												<SimplePredicate field="f6" operator="greaterOrEqual" value="1.5"/>
											</Node>
										</Node>
									</Node>
									<Node score="-0.103158236">
										<SimplePredicate field="f2" operator="greaterOrEqual" value="12.0"/>
									</Node>
								</Node>
							</TreeModel>
						</Segment>
						<Segment id="8">
							<True/>
							<TreeModel functionName="regression" missingValueStrategy="none" noTrueChildStrategy="returnLastPrediction" splitCharacteristic="multiSplit" x-mathContext="float">
								<MiningSchema>
									<MiningField name="f0"/>
									<MiningField name="f1"/>
									<MiningField name="f2"/>
									<MiningField name="f3"/>
									<MiningField name="f4"/>
									<MiningField name="f5"/>
									<MiningField name="f6"/>
									<MiningField name="f7"/>
									<MiningField name="f8"/>
									<MiningField name="f9"/>
								</MiningSchema>
								<Node score="-0.0053890813">
									<True/>
									<Node score="-0.20205598">
										<SimplePredicate field="f8" operator="greaterOrEqual" value="0.5"/>
										<Node score="-0.26676068">
											<SimplePredicate field="f9" operator="greaterOrEqual" value="2.5"/>
											<Node score="-0.0032953427">
												<SimplePredicate field="f9" operator="greaterOrEqual" value="3.5"/>
												<Node score="-0.32285112">
													<SimplePredicate field="f4" operator="greaterOrEqual" value="2.5"/>
													<Node score="-0.06558113">
														<SimplePredicate field="f2" operator="greaterOrEqual" value="2.5"/>
														<Node score="0.0015488657">
															<SimplePredicate field="f1" operator="greaterOrEqual" value="2.0524337E-14"/>
														</Node>
													</Node>
													<Node score="-0.105791055">
														<SimplePredicate field="f7" operator="greaterOrEqual" value="4.770519E-16"/>
													</Node>
												</Node>
												<Node score="-0.06022676">
													<SimplePredicate field="f3" operator="greaterOrEqual" value="1.0666738E-12"/>
													<Node score="-0.16507477">
														<SimplePredicate field="f0" operator="greaterOrEqual" value="2.5"/>
													</Node>
												</Node>
												<Node score="-0.29250643">
													<SimplePredicate field="f7" operator="greaterOrEqual" value="2.2073268E-19"/>
												</Node>
											</Node>
											<Node score="-0.17219745">
												<SimplePredicate field="f6" operator="greaterOrEqual" value="4.5"/>
												<Node score="-0.035083137">
													<SimplePredicate field="f4" operator="greaterOrEqual" value="6.5"/>
													<Node score="-0.119840585">
														<SimplePredicate field="f0" operator="greaterOrEqual" value="19.5"/>
													</Node>
												</Node>
												<Node score="-0.10109889">
													<SimplePredicate field="f5" operator="greaterOrEqual" value="1.3199023E-15"/>
												</Node>
											</Node>
											<Node score="-0.20808373">
												<SimplePredicate field="f2" operator="greaterOrEqual" value="2.5"/>
												<Node score="-0.13425095">
													<SimplePredicate field="f6" operator="greaterOrEqual" value="2.5"/>
												</Node>
											</Node>
											<Node score="-0.17528449">
												<SimplePredicate field="f5" operator="greaterOrEqual" value="3.1380305E-15"/>
											</Node>
										</Node>
										<Node score="-0.29617038">
											<SimplePredicate field="f9" operator="greaterOrEqual" value="1.5"/>
											<Node score="-0.00117782">
												<SimplePredicate field="f0" operator="greaterOrEqual" value="4.5"/>
												<Node score="-0.019822301">
													<SimplePredicate field="f4" operator="greaterOrEqual" value="16.5"/>
													<Node score="-0.057662543">
														<SimplePredicate field="f2" operator="greaterOrEqual" value="9.5"/>
													</Node>
												</Node>
												<Node score="0.057344127">
													<SimplePredicate field="f0" operator="greaterOrEqual" value="6.5"/>
												</Node>
											</Node>
											<Node score="0.04692548">
												<SimplePredicate field="f5" operator="greaterOrEqual" value="1.4037425E-21"/>
												<Node score="-0.032920416">
													<SimplePredicate field="f1" operator="greaterOrEqual" value="2.7073431E-18"/>
												</Node>
											</Node>
											<Node score="0.07017018">
												<SimplePredicate field="f4" operator="greaterOrEqual" value="4.5"/>
											</Node>
										</Node>
										<Node score="0.0069040693">
											<SimplePredicate field="f5" operator="greaterOrEqual" value="8.727723E-22"/>
											<Node score="0.05675981">
												<SimplePredicate field="f5" operator="greaterOrEqual" value="5.8561015E-16"/>
												<Node score="-0.03835377">
													<SimplePredicate field="f5" operator="greaterOrEqual" value="4.6653342E-15"/>
												</Node>
											</Node>
											<Node score="-0.11528159">
												<SimplePredicate field="f1" operator="greaterOrEqual" value="2.7073431E-18"/>
											</Node>
										</Node>
										<Node score="0.17004557">
											<SimplePredicate field="f5" operator="greaterOrEqual" value="8.3709234E-22"/>
											<Node score="0.669201">
												<SimplePredicate field="f1" operator="greaterOrEqual" value="6.1866425E-13"/>
											</Node>
										</Node>
										<Node score="0.06297556">
											<SimplePredicate field="f5" operator="greaterOrEqual" value="6.31011E-23"/>
										</Node>
									</Node>
									<Node score="0.0023613018">
										<SimplePredicate field="f2" operator="greaterOrEqual" value="4.5"/>
										<Node score="-0.28634062">
											<SimplePredicate field="f9" operator="greaterOrEqual" value="1.5"/>
											<Node score="-0.20200612">
												<SimplePredicate field="f4" operator="greaterOrEqual" value="2.5"/>
												<Node score="-0.053407405">
													<SimplePredicate field="f5" operator="greaterOrEqual" value="3.2628977E-18"/>
													<Node score="-0.123393744">
														<SimplePredicate field="f2" operator="greaterOrEqual" value="15.5"/>
													</Node>
												</Node>
												<Node score="0.30027628">
													<SimplePredicate field="f0" operator="greaterOrEqual" value="66.5"/>
												</Node>
											</Node>
											<Node score="0.24680467">
												<SimplePredicate field="f3" operator="greaterOrEqual" value="2.6697641E-12"/>
											</Node>
											<Node score="-0.18752483">
												<SimplePredicate field="f1" operator="greaterOrEqual" value="6.1866425E-13"/>
											</Node>
										</Node>
										<Node score="-0.10139497">
											<SimplePredicate field="f0" operator="greaterOrEqual" value="2.5"/>
											<Node score="0.31911212">
												<SimplePredicate field="f1" operator="greaterOrEqual" value="5.7864094E-15"/>
												<Node score="0.07372661">
													<SimplePredicate field="f2" operator="greaterOrEqual" value="47.5"/>
												</Node>
											</Node>
											<Node score="0.18893524">
												<SimplePredicate field="f2" operator="greaterOrEqual" value="6.5"/>
											</Node>
										</Node>
										<Node score="-0.2693906">
											<SimplePredicate field="f4" operator="greaterOrEqual" value="1.5"/>
										</Node>
										<Node score="0.17451489">
											<SimplePredicate field="f2" operator="greaterOrEqual" value="21.5"/>
										</Node>
									</Node>
									<Node score="-0.22037522">
										<SimplePredicate field="f9" operator="greaterOrEqual" value="1.5"/>
										<Node score="-0.20461054">
											<SimplePredicate field="f9" operator="greaterOrEqual" value="2.5"/>
											<Node score="-0.28753433">
												<SimplePredicate field="f9" operator="greaterOrEqual" value="3.5"/>
												<Node score="-0.18249741">
													<SimplePredicate field="f5" operator="greaterOrEqual" value="1.6725501E-18"/>
												</Node>
											</Node>
											<Node score="-0.27125582">
												<SimplePredicate field="f6" operator="greaterOrEqual" value="1.5"/>
											</Node>
										</Node>
										<Node score="0.0977181">
											<SimplePredicate field="f6" operator="greaterOrEqual" value="2.5"/>
											<Node score="-0.13787964">
												<SimplePredicate field="f1" operator="greaterOrEqual" value="1.993937E-18"/>
											</Node>
										</Node>
										<Node score="-0.15865275">
											<SimplePredicate field="f2" operator="greaterOrEqual" value="1.5"/>
										</Node>
									</Node>
									<Node score="0.26958624">
										<SimplePredicate field="f0" operator="greaterOrEqual" value="3.5"/>
										<Node score="-0.117236555">
											<SimplePredicate field="f6" operator="greaterOrEqual" value="3.5"/>
										</Node>
									</Node>
									<Node score="0.111957945">
										<SimplePredicate field="f0" operator="greaterOrEqual" value="2.5"/>
										<Node score="-0.102642976">
											<SimplePredicate field="f7" operator="greaterOrEqual" value="6.1866425E-13"/>
										</Node>
									</Node>
									<Node score="0.1784323">
										<SimplePredicate field="f0" operator="greaterOrEqual" value="1.5"/>
									</Node>
								</Node>
							</TreeModel>
						</Segment>
						<Segment id="9">
							<True/>
							<TreeModel functionName="regression" missingValueStrategy="none" noTrueChildStrategy="returnLastPrediction" splitCharacteristic="multiSplit" x-mathContext="float">
								<MiningSchema>
									<MiningField name="f0"/>
									<MiningField name="f1"/>
									<MiningField name="f2"/>
									<MiningField name="f3"/>
									<MiningField name="f4"/>
									<MiningField name="f5"/>
									<MiningField name="f6"/>
									<MiningField name="f7"/>
									<MiningField name="f8"/>
									<MiningField name="f9"/>
								</MiningSchema>
								<Node score="0.055956792">
									<True/>
									<Node score="-0.28796738">
										<SimplePredicate field="f8" operator="greaterOrEqual" value="0.5"/>
										<Node score="0.6925893">
											<SimplePredicate field="f6" operator="greaterOrEqual" value="2.5"/>
											<Node score="-0.021505581">
												<SimplePredicate field="f0" operator="greaterOrEqual" value="2.5"/>
												<Node score="0.2581111">
													<SimplePredicate field="f1" operator="greaterOrEqual" value="2.018737E-15"/>
													<Node score="0.01325709">
														<SimplePredicate field="f5" operator="greaterOrEqual" value="2.6167092E-16"/>
														<Node score="-0.025905034">
															<SimplePredicate field="f2" operator="greaterOrEqual" value="17.5"/>
														</Node>
													</Node>
													<Node score="-0.14863993">
														<SimplePredicate field="f5" operator="greaterOrEqual" value="4.855067E-21"/>
													</Node>
												</Node>
												<Node score="-0.14678255">
													<SimplePredicate field="f7" operator="greaterOrEqual" value="2.3707466E-14"/>
													<Node score="-0.048943333">
														<SimplePredicate field="f6" operator="greaterOrEqual" value="4.5"/>
													</Node>
												</Node>
												<Node score="0.49966937">
													<SimplePredicate field="f7" operator="greaterOrEqual" value="1.9942573E-15"/>
												</Node>
											</Node>
											<Node score="0.020760922">
												<SimplePredicate field="f5" operator="greaterOrEqual" value="2.4938945E-15"/>
												<Node score="-0.07252746">
													<SimplePredicate field="f2" operator="greaterOrEqual" value="1.5"/>
													<Node score="0.42456886">
														<SimplePredicate field="f2" operator="greaterOrEqual" value="106.5"/>
													</Node>
												</Node>
												<Node score="-0.21851428">
													<SimplePredicate field="f4" operator="greaterOrEqual" value="4.5"/>
												</Node>
											</Node>
											<Node score="-0.2979404">
												<SimplePredicate field="f5" operator="greaterOrEqual" value="1.4037425E-21"/>
												<Node score="-0.17190053">
													<SimplePredicate field="f4" operator="greaterOrEqual" value="3.5"/>
												</Node>
											</Node>
											<Node score="-0.12953903">
												<SimplePredicate field="f9" operator="greaterOrEqual" value="1.5"/>
											</Node>
										</Node>
										<Node score="-0.017974708">
											<SimplePredicate field="f3" operator="greaterOrEqual" value="6.1866425E-13"/>
											<Node score="-0.12964052">
												<SimplePredicate field="f9" operator="greaterOrEqual" value="2.5"/>
												<Node score="-0.050387546">
													<SimplePredicate field="f9" operator="greaterOrEqual" value="3.5"/>
													<Node score="-0.19663037">
														<SimplePredicate field="f0" operator="greaterOrEqual" value="14.0"/>
													</Node>
												</Node>
												<Node score="-0.19705954">
													<SimplePredicate field="f4" operator="greaterOrEqual" value="1.5"/>
												</Node>
											</Node>
											<Node score="-0.13773906">
												<SimplePredicate field="f4" operator="greaterOrEqual" value="1.5"/>
												<Node score="-0.038147464">
													<SimplePredicate field="f0" operator="greaterOrEqual" value="1.5"/>
												</Node>
											</Node>
											<Node score="-0.052070614">
												<SimplePredicate field="f0" operator="greaterOrEqual" value="1.5"/>
											</Node>
										</Node>
										<Node score="-0.035914686">
											<SimplePredicate field="f2" operator="greaterOrEqual" value="3.5"/>
											<Node score="0.023642015">
												<SimplePredicate field="f3" operator="greaterOrEqual" value="1.993937E-18"/>
												<Node score="-0.15316993">
													<SimplePredicate field="f1" operator="greaterOrEqual" value="4.770519E-16"/>
												</Node>
											</Node>
											<Node score="-0.21645227">
												<SimplePredicate field="f1" operator="greaterOrEqual" value="3.5909587E-20"/>
											</Node>
										</Node>
										<Node score="-0.2730811">
											<SimplePredicate field="f1" operator="greaterOrEqual" value="4.770519E-16"/>
											<Node score="-0.06646064">
												<SimplePredicate field="f9" operator="greaterOrEqual" value="1.5"/>
											</Node>
										</Node>
										<Node score="-0.046484467">
											<SimplePredicate field="f0" operator="greaterOrEqual" value="67.0"/>
										</Node>
									</Node>
									<Node score="-0.26798582">
										<SimplePredicate field="f2" operator="greaterOrEqual" value="4.5"/>
										<Node score="0.19255108">
											<SimplePredicate field="f4" operator="greaterOrEqual" value="2.5"/>
											<Node score="-0.055095125">
												<SimplePredicate field="f9" operator="greaterOrEqual" value="1.5"/>
												<Node score="-0.21940456">
													<SimplePredicate field="f6" operator="greaterOrEqual" value="9.5"/>
													<Node score="-0.0897717">
														<SimplePredicate field="f5" operator="greaterOrEqual" value="3.2628977E-18"/>
													</Node>
												</Node>
												<Node score="0.15212566">
													<SimplePredicate field="f2" operator="greaterOrEqual" value="8.5"/>
												</Node>
											</Node>
											<Node score="0.24856257">
												<SimplePredicate field="f1" operator="greaterOrEqual" value="4.770519E-16"/>
												<Node score="0.048484948">
													<SimplePredicate field="f2" operator="greaterOrEqual" value="88.5"/>
												</Node>
											</Node>
											<Node score="-0.082656145">
												<SimplePredicate field="f0" operator="greaterOrEqual" value="9.5"/>
											</Node>
										</Node>
										<Node score="0.18607785">
											<SimplePredicate field="f3" operator="greaterOrEqual" value="2.6697641E-12"/>
										</Node>
										<Node score="-0.26469818">
											<SimplePredicate field="f1" operator="greaterOrEqual" value="6.1866425E-13"/>
											<Node score="-0.11022571">
												<SimplePredicate field="f3" operator="greaterOrEqual" value="6.1891382E-18"/>
											</Node>
										</Node>
									</Node>
									<Node score="-0.28635266">
										<SimplePredicate field="f9" operator="greaterOrEqual" value="2.5"/>
										<Node score="-0.22187664">
											<SimplePredicate field="f2" operator="greaterOrEqual" value="3.5"/>
											<Node score="-0.30466953">
												<SimplePredicate field="f3" operator="greaterOrEqual" value="2.495546E-18"/>
												<Node score="-0.23429647">
													<SimplePredicate field="f5" operator="greaterOrEqual" value="1.4028582E-16"/>
												</Node>
											</Node>
											<Node score="-0.006621344">
												<SimplePredicate field="f4" operator="greaterOrEqual" value="5.5"/>
											</Node>
										</Node>
										<Node score="-0.23893754">
											<SimplePredicate field="f2" operator="greaterOrEqual" value="2.5"/>
											<Node score="-0.057955395">
												<SimplePredicate field="f1" operator="greaterOrEqual" value="6.1930837E-13"/>
											</Node>
										</Node>
										<Node score="-0.17313641">
											<SimplePredicate field="f7" operator="greaterOrEqual" value="3.8689559E-16"/>
										</Node>
									</Node>
									<Node score="-0.11959147">
										<SimplePredicate field="f9" operator="greaterOrEqual" value="1.5"/>
										<Node score="-0.08416933">
											<SimplePredicate field="f4" operator="greaterOrEqual" value="2.5"/>
											<Node score="-0.18206745">
												<SimplePredicate field="f2" operator="greaterOrEqual" value="3.5"/>
											</Node>
										</Node>
										<Node score="-0.18672404">
											<SimplePredicate field="f3" operator="greaterOrEqual" value="5.914876E-15"/>
										</Node>
									</Node>
									<Node score="0.23017271">
										<SimplePredicate field="f0" operator="greaterOrEqual" value="12.0"/>
									</Node>
									<Node score="-0.07550756">
										<SimplePredicate field="f6" operator="greaterOrEqual" value="3.5"/>
									</Node>
								</Node>
							</TreeModel>
						</Segment>
						<Segment id="10">
							<True/>
							<TreeModel functionName="regression" missingValueStrategy="none" noTrueChildStrategy="returnLastPrediction" splitCharacteristic="multiSplit" x-mathContext="float">
								<MiningSchema>
									<MiningField name="f0"/>
									<MiningField name="f1"/>
									<MiningField name="f2"/>
									<MiningField name="f3"/>
									<MiningField name="f4"/>
									<MiningField name="f5"/>
									<MiningField name="f6"/>
									<MiningField name="f7"/>
									<MiningField name="f8"/>
									<MiningField name="f9"/>
								</MiningSchema>
								<Node score="0.0041972073">
									<True/>
									<Node score="-0.26312235">
										<SimplePredicate field="f9" operator="greaterOrEqual" value="2.5"/>
										<Node score="0.13212046">
											<SimplePredicate field="f9" operator="greaterOrEqual" value="3.5"/>
											<Node score="-0.022367517">
												<SimplePredicate field="f8" operator="greaterOrEqual" value="0.5"/>
												<Node score="-0.057904366">
													<SimplePredicate field="f9" operator="greaterOrEqual" value="4.5"/>
													<Node score="-0.15296602">
														<SimplePredicate field="f2" operator="greaterOrEqual" value="8.5"/>
														<Node score="0.07060133">
															<SimplePredicate field="f4" operator="greaterOrEqual" value="5.5"/>
														</Node>
													</Node>
													<Node score="-0.1726481">
														<SimplePredicate field="f4" operator="greaterOrEqual" value="11.5"/>
													</Node>
												</Node>
												<Node score="-0.36228892">
													<SimplePredicate field="f6" operator="greaterOrEqual" value="78.5"/>
													<Node score="0.11157379">
														<SimplePredicate field="f6" operator="greaterOrEqual" value="88.5"/>
													</Node>
												</Node>
												<Node score="0.028419085">
													<SimplePredicate field="f4" operator="greaterOrEqual" value="7.5"/>
												</Node>
											</Node>
											<Node score="-0.19173568">
												<SimplePredicate field="f5" operator="greaterOrEqual" value="1.6725501E-18"/>
												<Node score="-0.17350517">
													<SimplePredicate field="f4" operator="greaterOrEqual" value="2.5"/>
													<Node score="-0.0600791">
														<SimplePredicate field="f0" operator="greaterOrEqual" value="2.5"/>
													</Node>
												</Node>
												<Node score="-0.030558426">
													<SimplePredicate field="f2" operator="greaterOrEqual" value="25.5"/>
												</Node>
											</Node>
											<Node score="-0.13045196">
												<SimplePredicate field="f7" operator="greaterOrEqual" value="7.221501E-21"/>
												<Node score="-0.28354943">
													<SimplePredicate field="f1" operator="greaterOrEqual" value="7.58905E-20"/>
												</Node>
											</Node>
										</Node>
										<Node score="-0.13502532">
											<SimplePredicate field="f2" operator="greaterOrEqual" value="4.5"/>
											<Node score="-0.14462797">
												<SimplePredicate field="f2" operator="greaterOrEqual" value="14.5"/>
												<Node score="-0.25530094">
													<SimplePredicate field="f3" operator="greaterOrEqual" value="1.4181418E-21"/>
													<Node score="-0.11380149">
														<SimplePredicate field="f4" operator="greaterOrEqual" value="1.5"/>
													</Node>
												</Node>
												<Node score="0.44533816">
													<SimplePredicate field="f3" operator="greaterOrEqual" value="8.727723E-22"/>
												</Node>
											</Node>
											<Node score="-0.07847602">
												<SimplePredicate field="f2" operator="greaterOrEqual" value="6.5"/>
												<Node score="0.020510018">
													<SimplePredicate field="f7" operator="greaterOrEqual" value="3.13214E-16"/>
												</Node>
											</Node>
											<Node score="-0.04804002">
												<SimplePredicate field="f1" operator="greaterOrEqual" value="1.3199023E-15"/>
											</Node>
										</Node>
										<Node score="-0.080449544">
											<SimplePredicate field="f8" operator="greaterOrEqual" value="0.5"/>
											<Node score="-0.10784208">
												<SimplePredicate field="f3" operator="greaterOrEqual" value="1.4028582E-16"/>
												<Node score="-0.21622367">
													<SimplePredicate field="f2" operator="greaterOrEqual" value="3.5"/>
												</Node>
											</Node>
											<Node score="0.16091801">
												<SimplePredicate field="f1" operator="greaterOrEqual" value="1.993937E-18"/>
											</Node>
										</Node>
										<Node score="-0.2838767">
											<SimplePredicate field="f6" operator="greaterOrEqual" value="1.5"/>
											<Node score="-0.21592759">
												<SimplePredicate field="f5" operator="greaterOrEqual" value="4.770519E-16"/>
											</Node>
										</Node>
										<Node score="-0.10687336">
											<SimplePredicate field="f1" operator="greaterOrEqual" value="1.336721E-15"/>
										</Node>
									</Node>
									<Node score="0.4325555">
										<SimplePredicate field="f6" operator="greaterOrEqual" value="2.5"/>
										<Node score="-0.014888285">
											<SimplePredicate field="f0" operator="greaterOrEqual" value="2.5"/>
											<Node score="0.2531474">
												<SimplePredicate field="f1" operator="greaterOrEqual" value="7.8464775E-14"/>
												<Node score="0.059648138">
													<SimplePredicate field="f5" operator="greaterOrEqual" value="2.6167092E-16"/>
													<Node score="0.0062679905">
														<SimplePredicate field="f5" operator="greaterOrEqual" value="5.831697E-16"/>
													</Node>
												</Node>
												<Node score="-0.104714">
													<SimplePredicate field="f7" operator="greaterOrEqual" value="8.727723E-22"/>
												</Node>
											</Node>
											<Node score="-0.07243038">
												<SimplePredicate field="f2" operator="greaterOrEqual" value="4.5"/>
												<Node score="-0.013371737">
													<SimplePredicate field="f9" operator="greaterOrEqual" value="1.5"/>
												</Node>
											</Node>
											<Node score="0.038117424">
												<SimplePredicate field="f6" operator="greaterOrEqual" value="3.5"/>
											</Node>
										</Node>
										<Node score="-0.038690973">
											<SimplePredicate field="f5" operator="greaterOrEqual" value="6.1866425E-13"/>
											<Node score="-0.1169947">
												<SimplePredicate field="f0" operator="greaterOrEqual" value="1.5"/>
												<Node score="4.3004242E-4">
													<SimplePredicate field="f4" operator="greaterOrEqual" value="3.5"/>
												</Node>
											</Node>
											<Node score="0.03762652">
												<SimplePredicate field="f4" operator="greaterOrEqual" value="2.5"/>
											</Node>
										</Node>
										<Node score="-0.106690235">
											<SimplePredicate field="f5" operator="greaterOrEqual" value="1.4037425E-21"/>
											<Node score="-0.23850557">
												<SimplePredicate field="f8" operator="greaterOrEqual" value="0.5"/>
											</Node>
										</Node>
										<Node score="-0.25965777">
											<SimplePredicate field="f9" operator="greaterOrEqual" value="1.5"/>
										</Node>
									</Node>
									<Node score="0.13446867">
										<SimplePredicate field="f3" operator="greaterOrEqual" value="5.8561015E-16"/>
										<Node score="-0.015922504">
											<SimplePredicate field="f8" operator="greaterOrEqual" value="0.5"/>
											<Node score="-0.1067017">
												<SimplePredicate field="f4" operator="greaterOrEqual" value="1.5"/>
												<Node score="-0.027719477">
													<SimplePredicate field="f0" operator="greaterOrEqual" value="1.5"/>
												</Node>
											</Node>
											<Node score="-0.31148285">
												<SimplePredicate field="f2" operator="greaterOrEqual" value="4.5"/>
											</Node>
										</Node>
										<Node score="0.073077165">
											<SimplePredicate field="f3" operator="greaterOrEqual" value="6.1866425E-13"/>
											<Node score="-0.1525256">
												<SimplePredicate field="f9" operator="greaterOrEqual" value="1.5"/>
											</Node>
										</Node>
										<Node score="-0.16210774">
											<SimplePredicate field="f0" operator="greaterOrEqual" value="10.5"/>
										</Node>
									</Node>
									<Node score="-0.16875908">
										<SimplePredicate field="f1" operator="greaterOrEqual" value="1.4028582E-16"/>
										<Node score="-0.2510511">
											<SimplePredicate field="f8" operator="greaterOrEqual" value="0.5"/>
											<Node score="-0.32450804">
												<SimplePredicate field="f4" operator="greaterOrEqual" value="6.5"/>
											</Node>
										</Node>
										<Node score="-0.007884907">
											<SimplePredicate field="f0" operator="greaterOrEqual" value="28.5"/>
										</Node>
									</Node>
									<Node score="-0.12638082">
										<SimplePredicate field="f1" operator="greaterOrEqual" value="1.993937E-18"/>
										<Node score="0.15669924">
											<SimplePredicate field="f9" operator="greaterOrEqual" value="1.5"/>
										</Node>
									</Node>
									<Node score="-0.15397167">
										<SimplePredicate field="f1" operator="greaterOrEqual" value="3.5909587E-20"/>
									</Node>
								</Node>
							</TreeModel>
						</Segment>
						<Segment id="11">
							<True/>
							<TreeModel functionName="regression" missingValueStrategy="none" noTrueChildStrategy="returnLastPrediction" splitCharacteristic="multiSplit" x-mathContext="float">
								<MiningSchema>
									<MiningField name="f0"/>
									<MiningField name="f1"/>
									<MiningField name="f2"/>
									<MiningField name="f3"/>
									<MiningField name="f4"/>
									<MiningField name="f5"/>
									<MiningField name="f6"/>
									<MiningField name="f7"/>
									<MiningField name="f8"/>
									<MiningField name="f9"/>
								</MiningSchema>
								<Node score="-0.21388613">
									<True/>
									<Node score="-0.003214269">
										<SimplePredicate field="f8" operator="greaterOrEqual" value="0.5"/>
										<Node score="0.019640168">
											<SimplePredicate field="f9" operator="greaterOrEqual" value="2.5"/>
											<Node score="-0.22337078">
												<SimplePredicate field="f9" operator="greaterOrEqual" value="3.5"/>
												<Node score="-0.16036984">
													<SimplePredicate field="f1" operator="greaterOrEqual" value="1.853627E-19"/>
													<Node score="-0.050536945">
														<SimplePredicate field="f5" operator="greaterOrEqual" value="1.6725501E-18"/>
														<Node score="-0.0047180387">
															<SimplePredicate field="f1" operator="greaterOrEqual" value="3.8689559E-16"/>
														</Node>
													</Node>
													<Node score="-0.29403296">
														<SimplePredicate field="f7" operator="greaterOrEqual" value="8.312467E-19"/>
													</Node>
												</Node>
												<Node score="0.021997662">
													<SimplePredicate field="f5" operator="greaterOrEqual" value="9.122642E-19"/>
													<Node score="-0.26080582">
														<SimplePredicate field="f0" operator="greaterOrEqual" value="8.5"/>
													</Node>
												</Node>
												<Node score="0.24405038">
													<SimplePredicate field="f5" operator="greaterOrEqual" value="1.4037425E-21"/>
												</Node>
											</Node>
											<Node score="-0.14853609">
												<SimplePredicate field="f6" operator="greaterOrEqual" value="5.5"/>
												<Node score="-0.0017656832">
													<SimplePredicate field="f4" operator="greaterOrEqual" value="3.5"/>
													<Node score="-0.06749712">
														<SimplePredicate field="f2" operator="greaterOrEqual" value="13.5"/>
													</Node>
												</Node>
												<Node score="0.077897236">
													<SimplePredicate field="f6" operator="greaterOrEqual" value="76.5"/>
												</Node>
											</Node>
											<Node score="0.89842105">
												<SimplePredicate field="f7" operator="greaterOrEqual" value="3.3878925E-15"/>
												<Node score="-0.0739628">
													<SimplePredicate field="f7" operator="greaterOrEqual" value="7.733004E-15"/>
												</Node>
											</Node>
											<Node score="-0.16795474">
												<SimplePredicate field="f7" operator="greaterOrEqual" value="5.1676835E-17"/>
											</Node>
										</Node>
										<Node score="-0.14987047">
											<SimplePredicate field="f9" operator="greaterOrEqual" value="1.5"/>
											<Node score="0.0017187375">
												<SimplePredicate field="f2" operator="greaterOrEqual" value="5.5"/>
												<Node score="-0.00800677">
													<SimplePredicate field="f2" operator="greaterOrEqual" value="17.5"/>
													<Node score="-0.3563336">
														<SimplePredicate field="f2" operator="greaterOrEqual" value="309.5"/>
													</Node>
												</Node>
												<Node score="0.049731765">
													<SimplePredicate field="f4" operator="greaterOrEqual" value="5.5"/>
												</Node>
											</Node>
											<Node score="-0.13521667">
												<SimplePredicate field="f6" operator="greaterOrEqual" value="5.5"/>
												<Node score="-0.0022988564">
													<SimplePredicate field="f6" operator="greaterOrEqual" value="6.5"/>
												</Node>
											</Node>
											<Node score="-0.0050657243">
												<SimplePredicate field="f5" operator="greaterOrEqual" value="8.727723E-22"/>
											</Node>
										</Node>
										<Node score="-0.32530117">
											<SimplePredicate field="f2" operator="greaterOrEqual" value="9.5"/>
											<Node score="-0.054074727">
												<SimplePredicate field="f6" operator="greaterOrEqual" value="9.5"/>
												<Node score="0.057405766">
													<SimplePredicate field="f4" operator="greaterOrEqual" value="84.5"/>
												</Node>
											</Node>
											<Node score="-0.1403238">
												<SimplePredicate field="f0" operator="greaterOrEqual" value="10.5"/>
											</Node>
										</Node>
										<Node score="0.24750884">
											<SimplePredicate field="f6" operator="greaterOrEqual" value="6.5"/>
											<Node score="-0.0011237155">
												<SimplePredicate field="f2" operator="greaterOrEqual" value="5.5"/>
											</Node>
										</Node>
										<Node score="-0.046647564">
											<SimplePredicate field="f0" operator="greaterOrEqual" value="3.5"/>
										</Node>
									</Node>
									<Node score="0.24649753">
										<SimplePredicate field="f0" operator="greaterOrEqual" value="4.5"/>
										<Node score="0.38593295">
											<SimplePredicate field="f4" operator="greaterOrEqual" value="17.5"/>
											<Node score="0.24444157">
												<SimplePredicate field="f0" operator="greaterOrEqual" value="17.5"/>
												<Node score="-0.1280943">
													<SimplePredicate field="f9" operator="greaterOrEqual" value="1.5"/>
													<Node score="0.17288391">
														<SimplePredicate field="f0" operator="greaterOrEqual" value="136.0"/>
													</Node>
												</Node>
												<Node score="0.02997194">
													<SimplePredicate field="f7" operator="greaterOrEqual" value="1.6577015E-15"/>
												</Node>
											</Node>
											<Node score="-0.061457414">
												<SimplePredicate field="f9" operator="greaterOrEqual" value="2.5"/>
											</Node>
										</Node>
										<Node score="-0.06096763">
											<SimplePredicate field="f9" operator="greaterOrEqual" value="1.5"/>
											<Node score="-0.028778246">
												<SimplePredicate field="f1" operator="greaterOrEqual" value="1.3199023E-15"/>
												<Node score="0.05159925">
													<SimplePredicate field="f4" operator="greaterOrEqual" value="6.5"/>
												</Node>
											</Node>
											<Node score="0.26527405">
												<SimplePredicate field="f0" operator="greaterOrEqual" value="16.5"/>
											</Node>
										</Node>
										<Node score="0.28665766">
											<SimplePredicate field="f2" operator="greaterOrEqual" value="7.5"/>
											<Node score="0.04920355">
												<SimplePredicate field="f0" operator="greaterOrEqual" value="12.5"/>
											</Node>
										</Node>
										<Node score="-0.083021075">
											<SimplePredicate field="f4" operator="greaterOrEqual" value="5.5"/>
										</Node>
									</Node>
									<Node score="-0.15489371">
										<SimplePredicate field="f9" operator="greaterOrEqual" value="2.5"/>
										<Node score="-0.15699399">
											<SimplePredicate field="f5" operator="greaterOrEqual" value="3.8689559E-16"/>
											<Node score="-0.12082957">
												<SimplePredicate field="f1" operator="greaterOrEqual" value="1.336721E-15"/>
												<Node score="-8.897464E-4">
													<SimplePredicate field="f9" operator="greaterOrEqual" value="4.5"/>
												</Node>
											</Node>
											<Node score="-0.26745877">
												<SimplePredicate field="f6" operator="greaterOrEqual" value="1.5"/>
											</Node>
										</Node>
										<Node score="-0.23134778">
											<SimplePredicate field="f4" operator="greaterOrEqual" value="5.5"/>
											<Node score="0.1407341">
												<SimplePredicate field="f9" operator="greaterOrEqual" value="3.5"/>
											</Node>
										</Node>
										<Node score="-0.28470308">
											<SimplePredicate field="f6" operator="greaterOrEqual" value="3.5"/>
										</Node>
									</Node>
									<Node score="-0.15535247">
										<SimplePredicate field="f1" operator="greaterOrEqual" value="1.4433268E-16"/>
										<Node score="0.043893363">
											<SimplePredicate field="f0" operator="greaterOrEqual" value="3.5"/>
											<Node score="-0.18782453">
												<SimplePredicate field="f9" operator="greaterOrEqual" value="1.5"/>
											</Node>
										</Node>
										<Node score="-0.056921165">
											<SimplePredicate field="f1" operator="greaterOrEqual" value="2.2036964E-15"/>
										</Node>
									</Node>
									<Node score="0.056832228">
										<SimplePredicate field="f4" operator="greaterOrEqual" value="3.5"/>
										<Node score="0.4639629">
											<SimplePredicate field="f5" operator="greaterOrEqual" value="3.2628977E-18"/>
										</Node>
									</Node>
									<Node score="0.046640158">
										<SimplePredicate field="f3" operator="greaterOrEqual" value="1.993937E-18"/>
									</Node>
								</Node>
							</TreeModel>
						</Segment>
						<Segment id="12">
							<True/>
							<TreeModel functionName="regression" missingValueStrategy="none" noTrueChildStrategy="returnLastPrediction" splitCharacteristic="multiSplit" x-mathContext="float">
								<MiningSchema>
									<MiningField name="f0"/>
									<MiningField name="f1"/>
									<MiningField name="f2"/>
									<MiningField name="f3"/>
									<MiningField name="f4"/>
									<MiningField name="f5"/>
									<MiningField name="f6"/>
									<MiningField name="f7"/>
									<MiningField name="f8"/>
									<MiningField name="f9"/>
								</MiningSchema>
								<Node score="-0.032092255">
									<True/>
									<Node score="0.36507824">
										<SimplePredicate field="f8" operator="greaterOrEqual" value="0.5"/>
										<Node score="-0.24414133">
											<SimplePredicate field="f2" operator="greaterOrEqual" value="2.5"/>
											<Node score="-0.019886823">
												<SimplePredicate field="f6" operator="greaterOrEqual" value="2.5"/>
												<Node score="0.007460452">
													<SimplePredicate field="f2" operator="greaterOrEqual" value="16.5"/>
													<Node score="-0.09107584">
														<SimplePredicate field="f3" operator="greaterOrEqual" value="2.729334E-20"/>
														<Node score="-0.023650015">
															<SimplePredicate field="f3" operator="greaterOrEqual" value="8.791141E-20"/>
														</Node>
													</Node>
